{"learner":{"attributes":{"scikit_learn":"{\"_estimator_type\": \"classifier\"}"},"feature_names":["NumSensitiveWords","PctExtHyperlinks","PctExtResourceUrls","ExtFavicon","InsecureForms","RelativeFormAction","ExtFormAction","AbnormalFormAction","PctNullSelfRedirectHyperlinks","FrequentDomainNameMismatch","FakeLinkInStatusBar","RightClickDisabled","PopUpWindow","SubmitInfoToEmail","IframeOrFrame","MissingTitle","ExtMetaScriptLinkRT","PctExtNullSelfRedirectHyperlinksRT"],"feature_types":["int","float","float","int","int","int","int","int","float","int","int","int","int","int","int","int","int","int"],"gradient_booster":{"model":{"gbtree_model_param":{"num_parallel_tree":"1","num_trees":"100"},"iteration_indptr":[0,1,2,3,4,5,6,7,8,9,10,11,12,13,14,15,16,17,18,19,20,21,22,23,24,25,26,27,28,29,30,31,32,33,34,35,36,37,38,39,40,41,42,43,44,45,46,47,48,49,50,51,52,53,54,55,56,57,58,59,60,61,62,63,64,65,66,67,68,69,70,71,72,73,74,75,76,77,78,79,80,81,82,83,84,85,86,87,88,89,90,91,92,93,94,95,96,97,98,99,100],"tree_info":[0,0,0,0,0,0,0,0,0,0,0,0,0,0,0,0,0,0,0,0,0,0,0,0,0,0,0,0,0,0,0,0,0,0,0,0,0,0,0,0,0,0,0,0,0,0,0,0,0,0,0,0,0,0,0,0,0,0,0,0,0,0,0,0,0,0,0,0,0,0,0,0,0,0,0,0,0,0,0,0,0,0,0,0,0,0,0,0,0,0,0,0,0,0,0,0,0,0,0,0],"trees":[{"base_weights":[-0E0,1.8368734E0,-7.647683E-1,1.8783666E0,-0E0,1.2295514E0,-1.76827E0,9.052632E-1,1.9167798E0,1.3333334E0,-1.3333334E0,-6.0805863E-1,1.5350554E0,-1.8894722E0,1.2432432E0,-2.6086956E-1,5.54717E-1,1.9238441E0,-2.0000002E-1,5.714286E-1,4.8000002E-1,-4.5000002E-1,-1.20000005E-1,-1.22E0,1.012987E0,1.6925081E0,-1.0736842E0,-1.9065841E0,-8.9855075E-1,1.6666666E0,-5E-1,-3.176471E-1,4.5000002E-1,5.879276E-1,1.5675676E0,-6.666667E-2,3.3333337E-1,-7.9310346E-1,-1.7272727E0,1.6825397E0,-4.666667E-1,1.7511581E0,-5.1428574E-1,-1.3953488E0,4.1538465E-1,-1.9288085E0,-1.5720165E0,-1.1333333E0,1.3846155E-1,-3E-1,1.7931035E0,4E-1,-4.5000002E-1,2.4155845E-1,5.758389E-1,-3.6774194E-1,2.4444444E-1,-5.421687E-1,-6.666667E-2,5.538462E-1,2.0000002E-1,5.734407E-1,4.2955855E-1,-5.013699E-1,3.529412E-2,-4.8552635E-1,-5.872637E-1,-1.8139535E-1,-5.235294E-1,-4.4000003E-1,-3.157895E-2,5.555556E-1,2.0000002E-1,3.6E-1,-3.3333337E-1],"categories":[],"categories_nodes":[],"categories_segments":[],"categories_sizes":[],"default_left":[0,0,0,0,0,0,0,0,0,0,0,0,0,0,0,0,0,0,0,0,0,0,0,0,0,0,0,0,0,0,0,0,0,0,0,0,0,0,0,0,0,0,0,0,0,0,0,0,0,0,0,0,0,0,0,0,0,0,0,0,0,0,0,0,0,0,0,0,0,0,0,0,0,0,0],"id":0,"left_children":[1,3,5,7,9,11,13,15,17,19,21,23,25,27,29,31,-1,33,-1,35,-1,-1,-1,37,39,41,43,45,47,49,51,-1,-1,-1,53,-1,-1,55,57,59,-1,61,-1,63,-1,65,67,69,-1,-1,71,73,-1,-1,-1,-1,-1,-1,-1,-1,-1,-1,-1,-1,-1,-1,-1,-1,-1,-1,-1,-1,-1,-1,-1],"loss_changes":[2.8123748E3,4.4854126E1,2.8310164E3,1.9776978E1,2.6666666E1,2.668952E2,3.4572485E2,2.6621338E1,1.1370483E1,6.095247E-1,5.666666E-1,6.893881E1,1.6878845E2,1.3628174E1,2.8144146E1,1.7746803E1,0E0,3.9846191E0,0E0,1.7460316E0,0E0,0E0,0E0,9.457741E0,3.5722946E1,7.967847E1,2.0712288E1,3.574463E0,6.031439E0,1.1908043E1,7.8E0,0E0,0E0,0E0,1.334375E1,0E0,0E0,2.1175583E1,2.245842E0,1.3870583E0,0E0,1.6598877E1,0E0,9.170959E0,0E0,4.224121E0,9.116379E0,4.9859657E0,0E0,0E0,6.845474E-1,7.377778E0,0E0,0E0,0E0,0E0,0E0,0E0,0E0,0E0,0E0,0E0,0E0,0E0,0E0,0E0,0E0,0E0,0E0,0E0,0E0,0E0,0E0,0E0,0E0],"parents":[2147483647,0,0,1,1,2,2,3,3,4,4,5,5,6,6,7,7,8,8,9,9,10,10,11,11,12,12,13,13,14,14,15,15,17,17,19,19,23,23,24,24,25,25,26,26,27,27,28,28,29,29,30,30,34,34,37,37,38,38,39,39,41,41,43,43,45,45,46,46,47,47,50,50,51,51],"right_children":[2,4,6,8,10,12,14,16,18,20,22,24,26,28,30,32,-1,34,-1,36,-1,-1,-1,38,40,42,44,46,48,50,52,-1,-1,-1,54,-1,-1,56,58,60,-1,62,-1,64,-1,66,68,70,-1,-1,72,74,-1,-1,-1,-1,-1,-1,-1,-1,-1,-1,-1,-1,-1,-1,-1,-1,-1,-1,-1,-1,-1,-1,-1],"split_conditions":[0E0,1E0,3.61E-3,1E0,1.5E-1,1E0,1E0,8.57143E-1,1E0,1.802E-3,8.33333E-1,1E0,1.802E-3,1E0,1E0,1E0,5.54717E-1,1E0,-2.0000002E-1,9.19118E-1,4.8000002E-1,-4.5000002E-1,-1.20000005E-1,1.1236E-2,1E0,1E0,2.92929E-1,1E0,3.54839E-1,6.7416E-2,1E0,-3.176471E-1,4.5000002E-1,5.879276E-1,9.65517E-1,-6.666667E-2,3.3333337E-1,1E0,1E0,5.11111E-1,-4.666667E-1,1.1236E-2,-5.1428574E-1,1E0,4.1538465E-1,3.0303E-2,1E0,1E0,1.3846155E-1,-3E-1,5.18987E-1,0E0,-4.5000002E-1,2.4155845E-1,5.758389E-1,-3.6774194E-1,2.4444444E-1,-5.421687E-1,-6.666667E-2,5.538462E-1,2.0000002E-1,5.734407E-1,4.2955855E-1,-5.013699E-1,3.529412E-2,-4.8552635E-1,-5.872637E-1,-1.8139535E-1,-5.235294E-1,-4.4000003E-1,-3.157895E-2,5.555556E-1,2.0000002E-1,3.6E-1,-3.3333337E-1],"split_indices":[17,13,1,4,2,4,9,8,12,8,1,9,8,0,14,6,0,6,0,1,0,0,0,2,14,13,8,2,1,1,5,0,0,0,2,0,0,14,3,2,0,2,0,3,0,2,3,6,0,0,1,16,0,0,0,0,0,0,0,0,0,0,0,0,0,0,0,0,0,0,0,0,0,0,0],"split_type":[0,0,0,0,0,0,0,0,0,0,0,0,0,0,0,0,0,0,0,0,0,0,0,0,0,0,0,0,0,0,0,0,0,0,0,0,0,0,0,0,0,0,0,0,0,0,0,0,0,0,0,0,0,0,0,0,0,0,0,0,0,0,0,0,0,0,0,0,0,0,0,0,0,0,0],"sum_hessian":[2E3,5.875E2,1.4125E3,5.745E2,1.3E1,4.7275E2,9.3975E2,2.275E1,5.5175E2,6.5E0,6.5E0,6.725E1,4.055E2,9.0375E2,3.6E1,1.05E1,1.225E1,5.505E2,1.25E0,2.5E0,4E0,5E0,1.5E0,4.9E1,1.825E1,3.8275E2,2.275E1,8.875E2,1.625E1,2.9E1,7E0,7.5E0,3E0,4.96E2,5.45E1,1.25E0,1.25E0,2.8E1,2.1E1,1.475E1,3.5E0,3.7675E2,6E0,2.05E1,2.25E0,8.2775E2,5.975E1,1.4E1,2.25E0,1E0,2.8E1,4E0,3E0,1.825E1,3.625E1,2.225E1,5.75E0,1.975E1,1.25E0,1.2E1,2.75E0,2.475E2,1.2925E2,1.725E1,3.25E0,7.5E1,7.5275E2,9.75E0,5E1,1.025E1,3.75E0,2.6E1,2E0,2.75E0,1.25E0],"tree_param":{"num_deleted":"0","num_feature":"18","num_nodes":"75","size_leaf_vector":"1"}},{"base_weights":[-1.4337151E-4,1.413358E0,-5.853103E-1,1.4462942E0,1.3270662E-2,9.279929E-1,-1.3575422E0,7.063904E-1,1.4761832E0,1.075082E0,-1.049331E0,-4.5715576E-1,1.1623825E0,-1.4514447E0,9.365674E-1,-1.7597738E-1,4.340421E-1,1.4822431E0,-1.6770285E-1,4.821592E-1,3.8399875E-1,-5.1295005E-2,-3.7116593E-1,-9.1580987E-1,7.7488875E-1,1.282918E0,-7.987894E-1,-1.4656203E0,-6.7156863E-1,1.276799E0,-4.189089E-1,-7.983544E-1,3.6378396E-1,4.5379162E-1,1.1891034E0,-5.5593953E-2,2.8256765E-1,-9.978575E-1,2.545327E-1,1.3113637E0,-3.7503374E-1,1.328825E0,-4.0696597E-1,-1.057872E0,3.4020644E-1,-1.4923476E0,-1.1513798E0,-4.706654E-2,-1.0426538E0,2.1971072E-1,1.4085962E0,2.93809E-1,-3.63784E-1,-3.2207975E-1,-1.2603019E-1,1.9144513E-1,4.610996E-1,-3.6368012E-1,-8.173888E-2,4.3345752E-1,1.5729189E-1,4.4085264E-1,3.177192E-1,-3.83992E-1,2.7204545E-2,-4.523933E-1,-3.707424E-1,1.7375411E-1,-3.9484605E-1,2.180984E-1,-2.4606882E-1,-3.7531748E-1,4.2414837E-2,-3.1740126E-1,3.19084E-1,4.3822527E-1,1.6120034E-1,2.883503E-1,-2.8256765E-1],"categories":[],"categories_nodes":[],"categories_segments":[],"categories_sizes":[],"default_left":[0,0,0,0,0,0,0,0,0,0,0,0,0,0,0,0,0,0,0,0,0,0,0,0,0,0,0,0,0,0,0,0,0,0,0,0,0,0,0,0,0,0,0,0,0,0,0,0,0,0,0,0,0,0,0,0,0,0,0,0,0,0,0,0,0,0,0,0,0,0,0,0,0,0,0,0,0,0,0],"id":1,"left_children":[1,3,5,7,9,11,13,15,17,19,21,23,25,27,29,31,-1,33,-1,35,-1,-1,-1,37,39,41,43,45,47,49,51,53,-1,-1,55,-1,-1,57,-1,59,-1,61,-1,63,-1,65,67,69,71,73,75,77,-1,-1,-1,-1,-1,-1,-1,-1,-1,-1,-1,-1,-1,-1,-1,-1,-1,-1,-1,-1,-1,-1,-1,-1,-1,-1,-1],"loss_changes":[1.5344153E3,2.5026611E1,1.5344502E3,1.0692261E1,1.6351446E1,1.4464282E2,1.8858057E2,1.4968015E1,7.107544E0,2.628107E-1,9.849019E-1,3.7416565E1,9.083429E1,8.250244E0,1.6575687E1,1.0618965E1,0E0,2.7266846E0,0E0,1.2376654E0,0E0,0E0,0E0,7.7650566E0,2.1371689E1,4.5218506E1,1.252402E1,5.164917E0,3.834436E0,3.5985718E0,4.7300625E0,4.1456556E-1,0E0,0E0,9.060951E0,0E0,0E0,6.8444366E0,0E0,8.02454E-1,0E0,1.182843E1,0E0,5.3350086E0,0E0,1.1512451E0,2.0328812E1,4.961226E0,2.7590551E0,5.755858E0,3.4001923E-1,4.9285645E0,0E0,0E0,0E0,0E0,0E0,0E0,0E0,0E0,0E0,0E0,0E0,0E0,0E0,0E0,0E0,0E0,0E0,0E0,0E0,0E0,0E0,0E0,0E0,0E0,0E0,0E0,0E0],"parents":[2147483647,0,0,1,1,2,2,3,3,4,4,5,5,6,6,7,7,8,8,9,9,10,10,11,11,12,12,13,13,14,14,15,15,17,17,19,19,23,23,24,24,25,25,26,26,27,27,28,28,29,29,30,30,31,31,34,34,37,37,39,39,41,41,43,43,45,45,46,46,47,47,48,48,49,49,50,50,51,51],"right_children":[2,4,6,8,10,12,14,16,18,20,22,24,26,28,30,32,-1,34,-1,36,-1,-1,-1,38,40,42,44,46,48,50,52,54,-1,-1,56,-1,-1,58,-1,60,-1,62,-1,64,-1,66,68,70,72,74,76,78,-1,-1,-1,-1,-1,-1,-1,-1,-1,-1,-1,-1,-1,-1,-1,-1,-1,-1,-1,-1,-1,-1,-1,-1,-1,-1,-1],"split_conditions":[0E0,1E0,3.61E-3,1E0,1.5E-1,1E0,1E0,8.57143E-1,1E0,1.802E-3,3.25E-1,1E0,1.802E-3,1E0,1E0,1E0,4.340421E-1,1E0,-1.6770285E-1,9.19118E-1,3.8399875E-1,-5.1295005E-2,-3.7116593E-1,1E0,1E0,1E0,2.92929E-1,3.75E-1,2.05128E-1,1.26866E-1,1E0,8.46154E-1,3.6378396E-1,4.5379162E-1,1E0,-5.5593953E-2,2.8256765E-1,1E0,2.545327E-1,5.11111E-1,-3.7503374E-1,1.1236E-2,-4.0696597E-1,1E0,3.4020644E-1,1E0,1.1236E-2,1E0,8.75E-1,0E0,5.18987E-1,0E0,-3.63784E-1,-3.2207975E-1,-1.2603019E-1,1.9144513E-1,4.610996E-1,-3.6368012E-1,-8.173888E-2,4.3345752E-1,1.5729189E-1,4.4085264E-1,3.177192E-1,-3.83992E-1,2.7204545E-2,-4.523933E-1,-3.707424E-1,1.7375411E-1,-3.9484605E-1,2.180984E-1,-2.4606882E-1,-3.7531748E-1,4.2414837E-2,-3.1740126E-1,3.19084E-1,4.3822527E-1,1.6120034E-1,2.883503E-1,-2.8256765E-1],"split_indices":[17,13,1,4,2,4,9,8,12,8,2,9,8,0,14,6,0,6,0,1,0,0,0,0,14,13,8,1,2,1,5,1,0,0,1,0,0,14,0,2,0,2,0,3,0,2,2,16,2,16,1,16,0,0,0,0,0,0,0,0,0,0,0,0,0,0,0,0,0,0,0,0,0,0,0,0,0,0,0],"split_type":[0,0,0,0,0,0,0,0,0,0,0,0,0,0,0,0,0,0,0,0,0,0,0,0,0,0,0,0,0,0,0,0,0,0,0,0,0,0,0,0,0,0,0,0,0,0,0,0,0,0,0,0,0,0,0,0,0,0,0,0,0,0,0,0,0,0,0,0,0,0,0,0,0,0,0,0,0,0,0],"sum_hessian":[1.8530983E3,5.421328E2,1.3109655E3,5.296403E2,1.2492482E1,4.4287817E2,8.6808734E2,2.1520996E1,5.0811935E2,6.24269E0,6.249792E0,6.395853E1,3.7891965E2,8.343049E2,3.378246E1,1.0167057E1,1.1353939E1,5.0688177E2,1.2375829E0,2.4645228E0,3.778167E0,1.437897E0,4.811895E0,4.679485E1,1.716368E1,3.5730518E2,2.1614466E1,8.1854706E2,1.5757795E1,2.7050653E1,6.7318077E0,7.3139496E0,2.8531075E0,4.5549185E2,5.13899E1,1.2486122E0,1.2159108E0,4.5130436E1,1.664416E0,1.3847527E1,3.3161533E0,3.5168506E2,5.620121E0,1.9458797E1,2.1556683E0,7.5092883E2,6.761822E1,6.2934065E0,9.464389E0,3.294438E0,2.3756216E1,3.8787005E0,2.8531075E0,3.169378E0,4.1445713E0,2.098725E1,3.0402649E1,3.4316193E1,1.0814243E1,1.1124844E1,2.7226822E0,2.2821869E2,1.2346637E2,1.620981E1,3.2489882E0,7.032067E2,4.772212E1,5.659839E0,6.1958374E1,3.1747153E0,3.118691E0,7.999736E0,1.464653E0,1.2094938E0,2.084944E0,2.1776083E1,1.9801326E0,2.6627898E0,1.2159108E0],"tree_param":{"num_deleted":"0","num_feature":"18","num_nodes":"79","size_leaf_vector":"1"}},{"base_weights":[-6.2627355E-6,1.2051722E0,-4.9256754E-1,1.2352726E0,2.606928E-2,7.610924E-1,-1.1526657E0,5.853514E-1,1.262931E0,9.150374E-1,-8.5866106E-1,-3.548247E-1,9.588568E-1,-1.2342125E0,7.730045E-1,-1.3744962E-1,3.730852E-1,1.2689213E0,-1.4200518E-1,4.15557E-1,3.2812536E-1,-4.2528428E-2,-1.0225096E0,-7.090309E-1,6.4214706E-1,1.0602938E0,-6.340435E-1,-1.2487713E0,-5.236275E-1,-3.7798676E-1,9.470649E-1,-6.428039E-1,3.111115E-1,3.9071515E-1,9.679368E-1,-4.641133E-2,2.4599229E-1,-3.4231913E-1,-8.660593E-2,-3.390764E-1,-1.1855495E0,1.1064442E0,-3.2051688E-1,1.0994158E0,-3.4816983E-1,-8.9304733E-1,8.386614E-1,-1.2930709E0,-1.047902E0,-7.075839E-1,1.2888055E-1,1.199115E0,-1.5212508E-1,-9.419097E-2,-2.7630523E-1,1.1300243E-1,3.8928214E-1,-1.9624743E-1,2.0410125E-1,-3.7814578E-1,-1.464557E-2,3.7252977E-1,1.250878E-1,3.7582317E-1,2.4833916E-1,-3.333878E-1,2.0976515E-2,3.136232E-1,5.4408778E-2,-3.9333287E-1,-3.0119035E-1,7.076594E-2,-3.521636E-1,-3.886287E-2,-3.403816E-1,1.1666128E-1,3.8395205E-1,2.209272E-1,-3.111115E-1],"categories":[],"categories_nodes":[],"categories_segments":[],"categories_sizes":[],"default_left":[0,0,0,0,0,0,0,0,0,0,0,0,0,0,0,0,0,0,0,0,0,0,0,0,0,0,0,0,0,0,0,0,0,0,0,0,0,0,0,0,0,0,0,0,0,0,0,0,0,0,0,0,0,0,0,0,0,0,0,0,0,0,0,0,0,0,0,0,0,0,0,0,0,0,0,0,0,0,0],"id":2,"left_children":[1,3,5,7,9,11,13,15,17,19,21,23,25,27,29,31,-1,33,-1,35,-1,-1,37,39,41,43,45,47,49,-1,51,53,-1,-1,55,-1,-1,-1,-1,57,59,61,-1,63,-1,65,67,69,71,73,-1,75,77,-1,-1,-1,-1,-1,-1,-1,-1,-1,-1,-1,-1,-1,-1,-1,-1,-1,-1,-1,-1,-1,-1,-1,-1,-1,-1],"loss_changes":[9.438329E2,1.633966E1,9.348884E2,7.3459473E0,1.0620339E1,8.6387405E1,1.17119934E2,9.793304E0,5.0788574E0,1.4545727E-1,6.517987E-1,2.1440878E1,5.4231873E1,6.6922607E0,1.2045692E1,6.922353E0,0E0,3.0635986E0,0E0,9.0726274E-1,0E0,0E0,1.3691425E-1,7.411806E0,1.397127E1,2.83844E1,8.5572195E0,4.8303223E0,3.105887E0,0E0,8.167311E0,4.414761E-1,0E0,0E0,8.643707E0,0E0,0E0,0E0,0E0,8.9093685E0,1.5544796E0,7.0977974E-1,0E0,1.1753479E1,0E0,3.8382177E0,2.9655766E-1,1.6313477E0,2.144281E1,3.252366E0,0E0,1.0431366E0,5.688601E0,0E0,0E0,0E0,0E0,0E0,0E0,0E0,0E0,0E0,0E0,0E0,0E0,0E0,0E0,0E0,0E0,0E0,0E0,0E0,0E0,0E0,0E0,0E0,0E0,0E0,0E0],"parents":[2147483647,0,0,1,1,2,2,3,3,4,4,5,5,6,6,7,7,8,8,9,9,10,10,11,11,12,12,13,13,14,14,15,15,17,17,19,19,22,22,23,23,24,24,25,25,26,26,27,27,28,28,30,30,31,31,34,34,39,39,40,40,41,41,43,43,45,45,46,46,47,47,48,48,49,49,51,51,52,52],"right_children":[2,4,6,8,10,12,14,16,18,20,22,24,26,28,30,32,-1,34,-1,36,-1,-1,38,40,42,44,46,48,50,-1,52,54,-1,-1,56,-1,-1,-1,-1,58,60,62,-1,64,-1,66,68,70,72,74,-1,76,78,-1,-1,-1,-1,-1,-1,-1,-1,-1,-1,-1,-1,-1,-1,-1,-1,-1,-1,-1,-1,-1,-1,-1,-1,-1,-1],"split_conditions":[0E0,1E0,3.61E-3,1E0,1.5E-1,1E0,1E0,8.57143E-1,1E0,1.802E-3,3.25E-1,1E0,1.802E-3,1E0,1E0,1E0,3.730852E-1,1E0,-1.4200518E-1,9.19118E-1,3.2812536E-1,-4.2528428E-2,9.25926E-1,1.1236E-2,1E0,1E0,2.64706E-1,2.5641E-1,3.54839E-1,-3.7798676E-1,1E0,1E0,3.111115E-1,3.9071515E-1,9.65517E-1,-4.641133E-2,2.4599229E-1,-3.4231913E-1,-8.660593E-2,1E0,1E0,5.11111E-1,-3.2051688E-1,1.1236E-2,-3.4816983E-1,1E0,3.8462E-2,1E0,3.0303E-2,9.1803E-2,1.2888055E-1,1.26866E-1,1E0,-9.419097E-2,-2.7630523E-1,1.1300243E-1,3.8928214E-1,-1.9624743E-1,2.0410125E-1,-3.7814578E-1,-1.464557E-2,3.7252977E-1,1.250878E-1,3.7582317E-1,2.4833916E-1,-3.333878E-1,2.0976515E-2,3.136232E-1,5.4408778E-2,-3.9333287E-1,-3.0119035E-1,7.076594E-2,-3.521636E-1,-3.886287E-2,-3.403816E-1,1.1666128E-1,3.8395205E-1,2.209272E-1,-3.111115E-1],"split_indices":[17,13,1,4,2,4,9,8,12,8,2,9,8,0,4,6,0,6,0,1,0,0,2,2,14,13,8,1,1,0,14,14,0,0,2,0,0,0,0,14,3,2,0,2,0,3,2,2,2,1,0,1,5,0,0,0,0,0,0,0,0,0,0,0,0,0,0,0,0,0,0,0,0,0,0,0,0,0,0],"split_type":[0,0,0,0,0,0,0,0,0,0,0,0,0,0,0,0,0,0,0,0,0,0,0,0,0,0,0,0,0,0,0,0,0,0,0,0,0,0,0,0,0,0,0,0,0,0,0,0,0,0,0,0,0,0,0,0,0,0,0,0,0,0,0,0,0,0,0,0,0,0,0,0,0,0,0,0,0,0,0],"sum_hessian":[1.5879502E3,4.6028857E2,1.1276616E3,4.487842E2,1.1504347E1,3.8890305E2,7.3875854E2,1.9223763E1,4.2956046E2,5.721343E0,5.7830033E0,5.842673E1,3.3047632E2,7.0908966E2,2.9668898E1,9.539844E0,9.683919E0,4.2835178E2,1.2086824E0,2.3839092E0,3.3374336E0,1.4228204E0,4.3601832E0,4.3323486E1,1.5103246E1,3.110056E2,1.9470676E1,6.9411096E2,1.4978699E1,1.8478689E0,2.7821028E1,6.986439E0,2.5534046E0,3.824997E2,4.5852093E1,1.2453405E0,1.1385689E0,3.2759705E0,1.0842127E0,2.53523E1,1.7971186E1,1.2156674E1,2.9465706E0,3.061181E2,4.887532E0,1.6893269E1,2.5774093E0,5.6423706E2,1.2987387E2,1.27716875E1,2.207012E0,2.2557552E1,5.2634754E0,4.1774406E0,2.8089986E0,1.7180868E1,2.8671223E1,1.9640188E1,5.7121124E0,1.6757608E1,1.2135768E0,9.492605E0,2.6640697E0,1.9335661E2,1.1276148E2,1.364644E1,3.2468283E0,1.5115086E0,1.0659006E0,5.2777167E2,3.6465435E1,1.1527576E1,1.1834629E2,5.9800735E0,6.7916136E0,2.5708616E0,1.998669E1,2.710071E0,2.5534046E0],"tree_param":{"num_deleted":"0","num_feature":"18","num_nodes":"79","size_leaf_vector":"1"}},{"base_weights":[-5.239289E-4,1.0736666E0,-4.318289E-1,1.103343E0,2.609787E-2,6.4287966E-1,-1.0217106E0,5.013823E-1,1.1307703E0,8.0105156E-1,-7.3392093E-1,-2.887996E-1,8.157201E-1,-1.0958667E0,6.5277743E-1,-1.0725891E-1,3.3477348E-1,1.1724014E0,7.944514E-1,3.6379415E-1,2.897151E-1,-9.2531306E-1,-2.3031984E-3,-5.730434E-1,5.50092E-1,9.042221E-1,-5.1036197E-1,-1.1311058E0,-7.287786E-1,-3.1954327E-1,8.163052E-1,-5.231301E-1,2.7400094E-1,3.541851E-1,7.558981E-1,2.758099E-1,3.680012E-1,-3.8773622E-2,2.1793078E-1,-3.1045192E-1,-7.990211E-2,-6.4914316E-1,3.3879596E-1,9.6537745E-1,-2.8261307E-1,9.386452E-1,-3.0908927E-1,-8.245323E-1,4.8532388E-1,-1.1544373E0,-8.03228E-1,9.7921085E-1,-9.289131E-1,1.0521199E0,-1.3700198E-1,-2.4246515E-1,-5.7901766E-2,3.1396055E-1,-9.827379E-3,3.9907137E-1,-5.7195745E-2,-1.0563085E-1,-3.1845617E-1,3.3417875E-1,9.9993095E-2,3.346306E-1,1.968479E-1,-3.2628685E-1,1.6176574E-2,2.589959E-1,-9.275253E-2,-3.4993038E-1,-1.8011409E-1,5.619627E-2,-3.2010365E-1,4.533206E-1,-2.0584941E-1,4.1973054E-2,-3.1962237E-1,1.3895568E-1,3.5704643E-1,1.809738E-1,-2.740009E-1],"categories":[],"categories_nodes":[],"categories_segments":[],"categories_sizes":[],"default_left":[0,0,0,0,0,0,0,0,0,0,0,0,0,0,0,0,0,0,0,0,0,0,0,0,0,0,0,0,0,0,0,0,0,0,0,0,0,0,0,0,0,0,0,0,0,0,0,0,0,0,0,0,0,0,0,0,0,0,0,0,0,0,0,0,0,0,0,0,0,0,0,0,0,0,0,0,0,0,0,0,0,0,0],"id":3,"left_children":[1,3,5,7,9,11,13,15,17,19,21,23,25,27,29,31,-1,33,35,37,-1,39,-1,41,43,45,47,49,51,-1,53,55,-1,-1,57,59,-1,-1,-1,-1,-1,61,-1,63,-1,65,-1,67,69,71,73,75,77,79,81,-1,-1,-1,-1,-1,-1,-1,-1,-1,-1,-1,-1,-1,-1,-1,-1,-1,-1,-1,-1,-1,-1,-1,-1,-1,-1,-1,-1],"loss_changes":[6.115429E2,1.1727203E1,5.977173E2,5.5040283E0,7.3268533E0,5.4078674E1,7.626813E1,6.7850933E0,3.9815063E0,9.1005325E-2,8.68356E-1,1.2967657E1,3.359268E1,6.7174683E0,8.294265E0,4.66507E0,0E0,1.687622E-1,9.021164E0,6.812343E-1,0E0,8.354998E-2,0E0,5.9309015E0,9.5468855E0,1.8614044E1,6.125035E0,3.1281738E0,1.932619E1,0E0,5.696457E0,5.635276E-1,0E0,0E0,2.0465264E0,1.02228565E1,0E0,0E0,0E0,0E0,0E0,4.4084015E0,0E0,6.989317E-1,0E0,1.229715E1,0E0,3.3594265E0,1.7742174E0,2.5743408E0,1.0260918E1,6.473281E0,7.259548E0,1.0677547E0,3.8741915E0,0E0,0E0,0E0,0E0,0E0,0E0,0E0,0E0,0E0,0E0,0E0,0E0,0E0,0E0,0E0,0E0,0E0,0E0,0E0,0E0,0E0,0E0,0E0,0E0,0E0,0E0,0E0,0E0],"parents":[2147483647,0,0,1,1,2,2,3,3,4,4,5,5,6,6,7,7,8,8,9,9,10,10,11,11,12,12,13,13,14,14,15,15,17,17,18,18,19,19,21,21,23,23,24,24,25,25,26,26,27,27,28,28,30,30,31,31,34,34,35,35,41,41,43,43,45,45,47,47,48,48,49,49,50,50,51,51,52,52,53,53,54,54],"right_children":[2,4,6,8,10,12,14,16,18,20,22,24,26,28,30,32,-1,34,36,38,-1,40,-1,42,44,46,48,50,52,-1,54,56,-1,-1,58,60,-1,-1,-1,-1,-1,62,-1,64,-1,66,-1,68,70,72,74,76,78,80,82,-1,-1,-1,-1,-1,-1,-1,-1,-1,-1,-1,-1,-1,-1,-1,-1,-1,-1,-1,-1,-1,-1,-1,-1,-1,-1,-1,-1],"split_conditions":[0E0,1E0,3.61E-3,1E0,1.5E-1,1E0,1E0,8.57143E-1,1E0,1.802E-3,8.33333E-1,1E0,1.802E-3,3.75E-1,1E0,1E0,3.3477348E-1,1E0,1E0,9.19118E-1,2.897151E-1,5.9172E-2,-2.3031984E-3,1E0,1E0,1E0,1.63265E-1,1E0,3.78378E-1,-3.1954327E-1,1E0,8.46154E-1,2.7400094E-1,3.541851E-1,5.11111E-1,1.45833E-1,3.680012E-1,-3.8773622E-2,2.1793078E-1,-3.1045192E-1,-7.990211E-2,1.1236E-2,3.3879596E-1,5.11111E-1,-2.8261307E-1,1.1236E-2,-3.0908927E-1,1E0,1E0,1E0,1E0,1E0,1.1236E-2,3.54839E-1,1E0,-2.4246515E-1,-5.7901766E-2,3.1396055E-1,-9.827379E-3,3.9907137E-1,-5.7195745E-2,-1.0563085E-1,-3.1845617E-1,3.3417875E-1,9.9993095E-2,3.346306E-1,1.968479E-1,-3.2628685E-1,1.6176574E-2,2.589959E-1,-9.275253E-2,-3.4993038E-1,-1.8011409E-1,5.619627E-2,-3.2010365E-1,4.533206E-1,-2.0584941E-1,4.1973054E-2,-3.1962237E-1,1.3895568E-1,3.5704643E-1,1.809738E-1,-2.740009E-1],"split_indices":[17,13,1,4,2,4,9,8,6,8,1,9,8,1,4,6,0,7,1,1,0,8,0,5,14,13,8,2,1,0,14,1,0,0,2,2,0,0,0,0,0,2,0,2,0,2,0,3,5,0,3,14,2,1,5,0,0,0,0,0,0,0,0,0,0,0,0,0,0,0,0,0,0,0,0,0,0,0,0,0,0,0,0],"split_type":[0,0,0,0,0,0,0,0,0,0,0,0,0,0,0,0,0,0,0,0,0,0,0,0,0,0,0,0,0,0,0,0,0,0,0,0,0,0,0,0,0,0,0,0,0,0,0,0,0,0,0,0,0,0,0,0,0,0,0,0,0,0,0,0,0,0,0,0,0,0,0,0,0,0,0,0,0,0,0,0,0,0,0],"sum_hessian":[1.3179604E3,3.7715192E2,9.4080853E2,3.667102E2,1.0441732E1,3.3336298E2,6.0744556E2,1.68206E1,3.498896E2,5.143337E0,5.2983956E0,5.2061207E1,2.8130176E2,5.8201605E2,2.5429497E1,8.865503E0,7.955097E0,3.0913727E2,4.0752335E1,2.2849925E0,2.8583443E0,3.9763675E0,1.3220285E0,3.9122227E1,1.293898E1,2.640006E2,1.7301138E1,5.291392E2,5.287683E1,1.7310123E0,2.3698484E1,6.6451645E0,2.2203388E0,3.0135834E2,7.778941E0,1.926883E1,2.1483505E1,1.2411513E0,1.0438411E0,2.9205625E0,1.055805E0,3.804041E1,1.0818173E0,1.0398056E1,2.5409243E0,2.5989087E2,4.1097383E0,1.3282109E1,4.019029E0,4.9163412E2,3.7505127E1,5.1377177E0,4.7739113E1,1.8915743E1,4.7827415E0,2.788695E0,3.8564692E0,5.4452586E0,2.3336823E0,5.341876E0,1.3926952E1,2.3190125E1,1.4850286E1,7.802025E0,2.5960312E0,1.580368E2,1.0185408E2,1.0037765E1,3.2443452E0,2.6646552E0,1.3543739E0,4.8013235E2,1.1501777E1,7.9482236E0,2.9556904E1,3.9643202E0,1.1733974E0,5.403322E0,4.233579E1,4.4186907E0,1.4497053E1,2.5624027E0,2.2203386E0],"tree_param":{"num_deleted":"0","num_feature":"18","num_nodes":"83","size_leaf_vector":"1"}},{"base_weights":[-2.9968828E-4,9.764693E-1,-3.8427505E-1,1.0065647E0,2.813441E-2,5.4518616E-1,-9.2368376E-1,4.3729916E-1,1.0345489E0,5.7009923E-1,-8.101561E-1,-2.2667935E-1,6.979516E-1,-9.929143E-1,5.593205E-1,-8.235384E-2,3.0711377E-1,1.0843117E0,6.7472994E-1,1.6675521E-1,9.0909255E-1,-2.759148E-1,-7.670928E-2,1.02896914E-1,-7.4818885E-1,9.931751E-1,3.3739278E-1,-6.102681E-1,-1.0328264E0,-2.7776447E-1,7.141476E-1,-4.291612E-1,2.4531795E-1,3.2809457E-1,6.5753835E-1,1.3767059E-1,1.1099554E0,-2.0034128E-1,2.7441663E-1,8.026432E-2,3.2071495E-1,3.2812098E-1,-3.5076272E-1,-3.160713E-1,5.580348E-1,1.0006768E0,3.9290532E-1,9.017723E-3,1.0423337E0,-1.0894779E0,3.8223952E-1,-1.0733964E0,-6.0689425E-1,9.390787E-1,-1.273595E-1,-4.0840585E-2,-2.1494542E-1,2.8738537E-1,-7.724685E-3,3.292681E-1,-1.710028E-1,7.0482016E-2,3.4474537E-1,2.0836761E-2,3.0556145E-1,-1.8805692E-2,2.8839916E-1,3.021397E-1,3.5306435E-2,-5.647074E-2,2.4070147E-1,3.5313192E-1,-1.297831E-1,3.7999156E-1,-1.0289774E-2,-3.436678E-1,-1.8849753E-1,-3.0898482E-1,3.4429508E-1,-3.2666847E-1,-1.4322549E-1,1.6434172E-2,-3.208281E-1,1.1149802E-1,3.2904017E-1,1.4922518E-1,-2.4531798E-1],"categories":[],"categories_nodes":[],"categories_segments":[],"categories_sizes":[],"default_left":[0,0,0,0,0,0,0,0,0,0,0,0,0,0,0,0,0,0,0,0,0,0,0,0,0,0,0,0,0,0,0,0,0,0,0,0,0,0,0,0,0,0,0,0,0,0,0,0,0,0,0,0,0,0,0,0,0,0,0,0,0,0,0,0,0,0,0,0,0,0,0,0,0,0,0,0,0,0,0,0,0,0,0,0,0,0,0],"id":4,"left_children":[1,3,5,7,9,11,13,15,17,19,21,23,25,27,29,31,-1,33,35,37,39,-1,-1,41,43,45,47,49,51,-1,53,55,-1,-1,57,59,61,-1,-1,-1,-1,63,-1,-1,65,67,69,71,73,75,77,79,81,83,85,-1,-1,-1,-1,-1,-1,-1,-1,-1,-1,-1,-1,-1,-1,-1,-1,-1,-1,-1,-1,-1,-1,-1,-1,-1,-1,-1,-1,-1,-1,-1,-1],"loss_changes":[4.065945E2,8.702484E0,3.9065256E2,4.2705383E0,5.2041917E0,3.3928703E1,5.114911E1,4.8452415E0,4.315033E0,7.9547644E-1,3.8897514E-2,8.339626E0,2.5140022E1,6.565399E0,5.862241E0,3.2254841E0,0E0,2.609558E-1,8.470161E0,3.3497493E0,7.713461E-2,0E0,0E0,9.075224E0,8.06198E0,1.9702148E-1,2.5281548E1,2.2745565E1,6.6963806E0,0E0,4.1034746E0,5.173451E-1,0E0,0E0,1.6203227E0,1.2618683E1,4.2404366E-1,0E0,0E0,0E0,0E0,4.671443E0,0E0,0E0,1.1127051E0,6.157074E-1,9.27716E-1,3.947941E1,8.425999E0,1.0574722E-1,1.8505642E1,3.0541992E0,1.2080263E1,1.0893831E0,2.7013369E0,0E0,0E0,0E0,0E0,0E0,0E0,0E0,0E0,0E0,0E0,0E0,0E0,0E0,0E0,0E0,0E0,0E0,0E0,0E0,0E0,0E0,0E0,0E0,0E0,0E0,0E0,0E0,0E0,0E0,0E0,0E0,0E0],"parents":[2147483647,0,0,1,1,2,2,3,3,4,4,5,5,6,6,7,7,8,8,9,9,10,10,11,11,12,12,13,13,14,14,15,15,17,17,18,18,19,19,20,20,23,23,24,24,25,25,26,26,27,27,28,28,30,30,31,31,34,34,35,35,36,36,41,41,44,44,45,45,46,46,47,47,48,48,49,49,50,50,51,51,52,52,53,53,54,54],"right_children":[2,4,6,8,10,12,14,16,18,20,22,24,26,28,30,32,-1,34,36,38,40,-1,-1,42,44,46,48,50,52,-1,54,56,-1,-1,58,60,62,-1,-1,-1,-1,64,-1,-1,66,68,70,72,74,76,78,80,82,84,86,-1,-1,-1,-1,-1,-1,-1,-1,-1,-1,-1,-1,-1,-1,-1,-1,-1,-1,-1,-1,-1,-1,-1,-1,-1,-1,-1,-1,-1,-1,-1,-1],"split_conditions":[0E0,1E0,3.61E-3,1E0,3.25E-1,1E0,1E0,8.57143E-1,1E0,8E-1,8.88889E-1,1.1236E-2,1.1236E-2,3.0303E-2,1E0,1E0,3.0711377E-1,1E0,9.80392E-1,4.54545E-1,1.06383E-1,-2.759148E-1,-7.670928E-2,1E0,1E0,1.802E-3,1E0,1.96581E-1,1E0,-2.7776447E-1,1E0,1E0,2.4531795E-1,3.2809457E-1,5.11111E-1,2.27273E-1,7.05882E-1,-2.0034128E-1,2.7441663E-1,8.026432E-2,3.2071495E-1,1E0,-3.5076272E-1,-3.160713E-1,1E0,1E0,9.5652E-2,0E0,8.88889E-1,1E0,1E0,1E0,1E0,3.54839E-1,1E0,-4.0840585E-2,-2.1494542E-1,2.8738537E-1,-7.724685E-3,3.292681E-1,-1.710028E-1,7.0482016E-2,3.4474537E-1,2.0836761E-2,3.0556145E-1,-1.8805692E-2,2.8839916E-1,3.021397E-1,3.5306435E-2,-5.647074E-2,2.4070147E-1,3.5313192E-1,-1.297831E-1,3.7999156E-1,-1.0289774E-2,-3.436678E-1,-1.8849753E-1,-3.0898482E-1,3.4429508E-1,-3.2666847E-1,-1.4322549E-1,1.6434172E-2,-3.208281E-1,1.1149802E-1,3.2904017E-1,1.4922518E-1,-2.4531798E-1],"split_indices":[17,13,1,4,2,4,9,8,6,1,2,2,2,2,4,6,0,7,2,8,2,0,0,13,3,8,3,1,2,0,14,14,0,0,2,2,1,0,0,0,0,9,0,0,6,7,8,16,2,5,4,0,14,1,5,0,0,0,0,0,0,0,0,0,0,0,0,0,0,0,0,0,0,0,0,0,0,0,0,0,0,0,0,0,0,0,0],"split_type":[0,0,0,0,0,0,0,0,0,0,0,0,0,0,0,0,0,0,0,0,0,0,0,0,0,0,0,0,0,0,0,0,0,0,0,0,0,0,0,0,0,0,0,0,0,0,0,0,0,0,0,0,0,0,0,0,0,0,0,0,0,0,0,0,0,0,0,0,0,0,0,0,0,0,0,0,0,0,0,0,0,0,0,0,0,0,0],"sum_hessian":[1.0820918E3,3.0490967E2,7.771821E2,2.954715E2,9.438195E0,2.8539835E2,4.917838E2,1.462338E1,2.808481E2,5.926542E0,3.5116534E0,4.707294E1,2.3832541E2,4.7016568E2,2.1618107E1,8.2087345E0,6.414646E0,2.4495712E2,3.5890987E1,3.387687E0,2.5388546E0,2.3821766E0,1.1294768E0,2.9336172E1,1.773677E1,1.3007018E2,1.0825523E2,4.5947464E1,4.2421823E2,1.570713E0,2.0047394E1,6.3032455E0,1.9054887E0,2.3818361E2,6.773515E0,1.6655169E1,1.9235817E1,1.6518147E0,1.7358724E0,1.040064E0,1.4987907E0,2.5553955E1,3.7822168E0,1.4532611E1,3.2041588E0,1.2780593E2,2.2642386E0,7.4544E1,3.3711235E1,3.09205E1,1.5026965E1,3.8593765E2,3.828059E1,1.5727544E1,4.31985E0,3.850317E0,2.4529283E0,4.4257317E0,2.3477833E0,6.834286E0,9.820883E0,1.1245736E0,1.8111242E1,1.939006E1,6.1638947E0,1.594539E0,1.6096199E0,1.2673874E2,1.0671945E0,1.1591772E0,1.1050615E0,1.9994352E1,5.454965E1,2.7752768E1,5.958466E0,2.6244724E1,4.6757765E0,5.16039E0,9.866575E0,3.7534955E2,1.0588083E1,1.6112488E1,2.2168102E1,4.1508636E0,1.157668E1,2.414361E0,1.9054888E0],"tree_param":{"num_deleted":"0","num_feature":"18","num_nodes":"87","size_leaf_vector":"1"}},{"base_weights":[1.516645E-3,8.9704764E-1,-3.394394E-1,9.282069E-1,3.383307E-2,4.636091E-1,-8.4313905E-1,9.38285E-1,-1.7652598E-1,5.0636417E-1,-7.1960515E-1,5.599275E-1,-5.4501843E-1,-9.085448E-1,4.7996822E-1,3.8401598E-1,9.6825725E-1,1.0464702E-1,2.3861568E-1,-2.5020635E-1,-6.037868E-2,6.172422E-1,-3.3127603E-1,-7.588298E-1,2.5432736E-1,-9.948034E-1,-6.9077504E-1,-2.4568361E-1,6.268582E-1,-6.1621957E-2,2.8491184E-1,1.0231594E0,6.031719E-1,-1.8429434E-1,2.557212E-1,8.3685815E-1,3.2996312E-1,-8.74939E-1,-1.6261253E-1,-1.0162967E0,-2.980762E-1,2.5733086E-1,-8.4093946E-1,8.432971E-1,-1.21180974E-1,-1.0585822E-1,2.2175364E-1,3.103135E-1,1.72115E-1,1.694033E-2,2.963587E-1,1.1893826E-1,2.780131E-1,1.227412E-2,3.216195E-1,-3.127046E-1,-6.985255E-2,7.4210264E-2,-1.5647385E-1,-2.2134756E-1,-3.1837833E-1,5.4335035E-2,-2.8961542E-1,-2.68675E-1,2.3398016E-1,-2.9433355E-1,-1.3620295E-1,8.904293E-2,3.078202E-1,1.2333873E-1,-2.2175364E-1],"categories":[],"categories_nodes":[],"categories_segments":[],"categories_sizes":[],"default_left":[0,0,0,0,0,0,0,0,0,0,0,0,0,0,0,0,0,0,0,0,0,0,0,0,0,0,0,0,0,0,0,0,0,0,0,0,0,0,0,0,0,0,0,0,0,0,0,0,0,0,0,0,0,0,0,0,0,0,0,0,0,0,0,0,0,0,0,0,0,0,0],"id":5,"left_children":[1,3,5,7,9,11,13,15,-1,17,19,21,23,25,27,29,31,33,-1,-1,-1,35,-1,37,-1,39,41,-1,43,45,-1,47,49,-1,-1,51,53,55,57,59,61,63,65,67,69,-1,-1,-1,-1,-1,-1,-1,-1,-1,-1,-1,-1,-1,-1,-1,-1,-1,-1,-1,-1,-1,-1,-1,-1,-1,-1],"loss_changes":[2.7235727E2,6.5842743E0,2.617073E2,4.180008E0,3.784676E0,2.455994E1,3.482367E1,3.551651E0,0E0,6.7040956E-1,7.6242685E-2,2.2466309E1,7.2751374E0,6.4320374E0,4.2095313E0,3.5306704E0,3.860672E0,2.6028535E0,0E0,0E0,0E0,1.3694237E1,0E0,1.2307558E0,0E0,3.728241E0,1.5991177E1,0E0,3.0116997E0,2.276632E0,0E0,3.7850952E-1,6.5984373E0,0E0,0E0,4.572754E0,2.0889137E1,1.5172558E0,7.855763E-1,2.4815674E0,3.203347E0,1.0287638E1,4.755043E0,1.1001225E0,1.9181756E0,0E0,0E0,0E0,0E0,0E0,0E0,0E0,0E0,0E0,0E0,0E0,0E0,0E0,0E0,0E0,0E0,0E0,0E0,0E0,0E0,0E0,0E0,0E0,0E0,0E0,0E0],"parents":[2147483647,0,0,1,1,2,2,3,3,4,4,5,5,6,6,7,7,9,9,10,10,11,11,12,12,13,13,14,14,15,15,16,16,17,17,21,21,23,23,25,25,26,26,28,28,29,29,31,31,32,32,35,35,36,36,37,37,38,38,39,39,40,40,41,41,42,42,43,43,44,44],"right_children":[2,4,6,8,10,12,14,16,-1,18,20,22,24,26,28,30,32,34,-1,-1,-1,36,-1,38,-1,40,42,-1,44,46,-1,48,50,-1,-1,52,54,56,58,60,62,64,66,68,70,-1,-1,-1,-1,-1,-1,-1,-1,-1,-1,-1,-1,-1,-1,-1,-1,-1,-1,-1,-1,-1,-1,-1,-1,-1,-1],"split_conditions":[0E0,1E0,3.61E-3,1E0,3.25E-1,1.802E-3,1E0,1E0,-1.7652598E-1,5.9172E-2,1E0,1E0,3.52601E-1,2E-1,1E0,8.57143E-1,1E0,1E0,2.3861568E-1,-2.5020635E-1,-6.037868E-2,1.1236E-2,-3.3127603E-1,1.63265E-1,2.5432736E-1,1E0,3.0303E-2,-2.4568361E-1,1E0,1E0,2.8491184E-1,1E0,8.75E-1,-1.8429434E-1,2.557212E-1,1E0,1E0,1E0,2.14286E-1,0E0,9.1803E-2,1E0,8.57143E-1,3.54839E-1,1E0,-1.0585822E-1,2.2175364E-1,3.103135E-1,1.72115E-1,1.694033E-2,2.963587E-1,1.1893826E-1,2.780131E-1,1.227412E-2,3.216195E-1,-3.127046E-1,-6.985255E-2,7.4210264E-2,-1.5647385E-1,-2.2134756E-1,-3.1837833E-1,5.4335035E-2,-2.8961542E-1,-2.68675E-1,2.3398016E-1,-2.9433355E-1,-1.3620295E-1,8.904293E-2,3.078202E-1,1.2333873E-1,-2.2175364E-1],"split_indices":[17,13,1,12,2,8,9,4,0,8,3,13,8,1,4,8,6,3,0,0,0,2,0,8,0,0,2,0,14,6,0,7,2,0,0,4,3,3,8,16,1,4,2,1,5,0,0,0,0,0,0,0,0,0,0,0,0,0,0,0,0,0,0,0,0,0,0,0,0,0,0],"split_type":[0,0,0,0,0,0,0,0,0,0,0,0,0,0,0,0,0,0,0,0,0,0,0,0,0,0,0,0,0,0,0,0,0,0,0,0,0,0,0,0,0,0,0,0,0,0,0,0,0,0,0,0,0,0,0,0,0,0,0,0,0,0,0,0,0,0,0,0,0,0,0],"sum_hessian":[8.899928E2,2.4496199E2,6.450308E2,2.3635504E2,8.606947E0,2.4866452E2,3.963663E2,2.3517363E2,1.1814055E0,5.491065E0,3.1158824E0,2.2739444E2,2.127007E1,3.7799408E2,1.8372221E1,1.2773283E1,2.2240034E2,2.8675158E0,2.6235492E0,2.053574E0,1.0623083E0,2.2043184E2,6.9626102E0,1.8833952E1,2.4361167E0,2.6819418E2,1.097999E2,1.4017394E0,1.6970482E1,7.6432056E0,5.1300774E0,1.9176057E2,3.0639782E1,1.5528866E0,1.3146292E0,1.23843956E2,9.658788E1,1.5372732E1,3.4612198E0,2.597233E2,8.470881E0,1.4915154E1,9.488474E1,1.3063363E1,3.9071193E0,6.0150065E0,1.6281991E0,1.8582068E2,5.9398923E0,1.3128688E1,1.7511095E1,2.1902817E1,1.0194114E2,7.0272E1,2.6315878E1,1.1699144E1,3.6735878E0,1.7609313E0,1.7002885E0,3.852714E1,2.2119615E2,5.3544483E0,3.1164334E0,4.4295125E0,1.04856415E1,6.8524765E1,2.635998E1,3.9316323E0,9.131731E0,2.2789202E0,1.6281991E0],"tree_param":{"num_deleted":"0","num_feature":"18","num_nodes":"71","size_leaf_vector":"1"}},{"base_weights":[4.6528914E-4,8.2206327E-1,-3.004878E-1,6.7894804E-1,3.225788E-1,3.8282305E-1,-7.6791745E-1,-3.1250763E-1,9.358246E-1,-2.160575E-1,5.2185756E-1,-8.2977474E-1,4.0932837E-1,-1.2012922E0,6.8262374E-1,9.939291E-1,3.0315998E-1,-3.0646157E-1,3.07603E-1,8.275448E-1,2.4213004E-1,-6.8301684E-1,-1.0057124E0,-2.198431E-1,5.48281E-1,-1.3752438E0,1.669014E-1,-6.583941E-1,1.0203048E0,2.1330285E-1,3.111226E-1,-2.2674768E-1,2.788162E-1,-5.2144326E-2,-7.589755E-1,2.5104088E-1,7.450146E-2,6.333867E-2,1.0402383E0,5.675158E-2,-8.045916E-1,-1.0398949E0,-3.938455E-2,7.565002E-1,-1.1725305E-1,-5.0599015E-1,-1.3766928E-1,1.1440412E-1,-4.1591498E-1,3.243525E-1,8.9918904E-2,1.5625218E-1,-9.545813E-2,-2.2412284E-1,2.1701847E-1,-8.318433E-2,2.727836E-1,-2.9714715E-1,7.390619E-2,-4.8010673E-2,2.3030116E-1,3.3940682E-1,6.5699205E-2,1.6706742E-1,-3.0004555E-1,-2.8135794E-1,-1.3821268E-1,-6.626854E-3,-3.1610364E-1,4.204091E-1,-2.551814E-1,6.643809E-2,2.9884723E-1,-2.0613788E-1,1.02383636E-1],"categories":[],"categories_nodes":[],"categories_segments":[],"categories_sizes":[],"default_left":[0,0,0,0,0,0,0,0,0,0,0,0,0,0,0,0,0,0,0,0,0,0,0,0,0,0,0,0,0,0,0,0,0,0,0,0,0,0,0,0,0,0,0,0,0,0,0,0,0,0,0,0,0,0,0,0,0,0,0,0,0,0,0,0,0,0,0,0,0,0,0,0,0,0,0],"id":6,"left_children":[1,3,5,7,-1,9,11,13,15,17,19,21,23,25,27,29,31,33,-1,35,37,39,41,-1,43,45,-1,47,49,51,-1,53,-1,55,57,-1,-1,59,61,63,65,67,69,71,73,-1,-1,-1,-1,-1,-1,-1,-1,-1,-1,-1,-1,-1,-1,-1,-1,-1,-1,-1,-1,-1,-1,-1,-1,-1,-1,-1,-1,-1,-1],"loss_changes":[1.8266805E2,6.4469757E0,1.729943E2,3.3210228E1,0E0,1.8456066E1,2.3744583E1,2.5006678E1,3.481514E0,5.051937E0,1.5113037E1,7.206024E0,3.0544143E0,5.2923393E0,6.8026986E0,2.9384003E0,3.5606003E0,4.5774536E0,0E0,2.4883652E-1,1.3479687E1,1.5315338E1,4.4812775E0,0E0,2.2329726E0,3.1528358E0,0E0,3.0501795E0,1.6752815E-1,1.1746284E0,0E0,3.6410966E0,0E0,6.043998E0,3.5865545E0,0E0,0E0,1.2491833E1,1.047432E0,1.371806E1,6.253563E0,1.8312378E0,7.8735766E0,1.3078852E0,1.4242777E0,0E0,0E0,0E0,0E0,0E0,0E0,0E0,0E0,0E0,0E0,0E0,0E0,0E0,0E0,0E0,0E0,0E0,0E0,0E0,0E0,0E0,0E0,0E0,0E0,0E0,0E0,0E0,0E0,0E0,0E0],"parents":[2147483647,0,0,1,1,2,2,3,3,5,5,6,6,7,7,8,8,9,9,10,10,11,11,12,12,13,13,14,14,15,15,16,16,17,17,19,19,20,20,21,21,22,22,24,24,25,25,27,27,28,28,29,29,31,31,33,33,34,34,37,37,38,38,39,39,40,40,41,41,42,42,43,43,44,44],"right_children":[2,4,6,8,-1,10,12,14,16,18,20,22,24,26,28,30,32,34,-1,36,38,40,42,-1,44,46,-1,48,50,52,-1,54,-1,56,58,-1,-1,60,62,64,66,68,70,72,74,-1,-1,-1,-1,-1,-1,-1,-1,-1,-1,-1,-1,-1,-1,-1,-1,-1,-1,-1,-1,-1,-1,-1,-1,-1,-1,-1,-1,-1,-1],"split_conditions":[0E0,8.57143E-1,3.61E-3,8.33333E-1,3.225788E-1,1E0,1E0,1.12554E-1,1E0,1E0,1.1236E-2,1E0,1E0,2E0,1.35965E-1,1E0,1E0,1.1236E-2,3.07603E-1,1E0,1E0,0E0,5E-1,-2.198431E-1,1E0,1E0,1.669014E-1,1.25E-1,1E0,1E0,3.111226E-1,7.87879E-1,2.788162E-1,1E0,1E0,2.5104088E-1,7.450146E-2,1E0,1E0,1E0,2E-1,2.7523E-2,5.18987E-1,0E0,4.82759E-1,-5.0599015E-1,-1.3766928E-1,1.1440412E-1,-4.1591498E-1,3.243525E-1,8.9918904E-2,1.5625218E-1,-9.545813E-2,-2.2412284E-1,2.1701847E-1,-8.318433E-2,2.727836E-1,-2.9714715E-1,7.390619E-2,-4.8010673E-2,2.3030116E-1,3.3940682E-1,6.5699205E-2,1.6706742E-1,-3.0004555E-1,-2.8135794E-1,-1.3821268E-1,-6.626854E-3,-3.1610364E-1,4.204091E-1,-2.551814E-1,6.643809E-2,2.9884723E-1,-2.0613788E-1,1.02383636E-1],"split_indices":[17,8,1,1,0,4,9,8,5,0,2,14,4,0,1,4,3,2,0,6,9,16,1,0,14,3,0,2,13,14,0,2,0,9,3,0,0,3,5,5,1,2,1,16,1,0,0,0,0,0,0,0,0,0,0,0,0,0,0,0,0,0,0,0,0,0,0,0,0,0,0,0,0,0,0],"split_type":[0,0,0,0,0,0,0,0,0,0,0,0,0,0,0,0,0,0,0,0,0,0,0,0,0,0,0,0,0,0,0,0,0,0,0,0,0,0,0,0,0,0,0,0,0,0,0,0,0,0,0,0,0,0,0,0,0,0,0,0,0,0,0,0,0,0,0,0,0,0,0,0,0,0,0],"sum_hessian":[7.3676276E2,1.9706E2,5.3970276E2,1.2825066E2,6.880933E1,2.1930026E2,3.204025E2,2.6346315E1,1.0190434E2,4.1215145E1,1.7808511E2,3.046881E2,1.5714401E1,1.3807348E1,1.2538966E1,9.28096E1,9.094737E0,3.9119434E1,2.0957112E0,8.415825E1,9.392686E1,1.6878162E2,1.359065E2,1.2408949E0,1.4473506E1,1.2761871E1,1.0454774E0,2.331245E0,1.0207721E1,5.172333E0,8.763727E1,5.271748E0,3.8229892E0,2.5758268E1,1.3361166E1,8.239649E1,1.7617574E0,7.7618256E1,1.6308601E1,2.3898027E1,1.4488358E2,1.3118971E2,4.7167845E0,1.0920298E1,3.5532088E0,8.897681E0,3.86419E0,1.1561509E0,1.175094E0,8.951144E0,1.2565764E0,3.2891781E0,1.8831547E0,3.544428E0,1.7273201E0,2.1447495E1,4.3107743E0,1.0872194E1,2.4889717E0,5.951595E1,1.8102308E1,1.4339948E1,1.9686526E0,1.6542841E1,7.355187E0,1.0317277E2,4.171081E1,1.7876908E0,1.2940202E2,1.437057E0,3.2797277E0,3.9734828E0,6.9468145E0,1.3619779E0,2.1912308E0],"tree_param":{"num_deleted":"0","num_feature":"18","num_nodes":"75","size_leaf_vector":"1"}},{"base_weights":[2.7912946E-3,7.5719273E-1,-2.5886795E-1,6.0956544E-1,3.1183997E-1,3.1826746E-1,-6.877839E-1,-2.2938852E-1,8.630826E-1,4.0143856E-1,-4.865923E-1,-7.9000425E-1,-8.9032374E-2,-9.293056E-1,5.180982E-1,5.695838E-1,1.012521E0,4.5145887E-1,-3.0274576E-1,-6.7500055E-1,2.1918707E-1,-8.2599455E-1,3.1161938E-2,1.0077437E0,-3.9187783E-1,-3.913697E-1,-1.5916307E0,-5.0600064E-1,8.1011355E-1,8.6825436E-1,2.0140672E-2,3.9421278E-1,3.1279877E-1,6.5826005E-1,2.3558898E-1,-8.036504E-1,-1.1212433E-1,-6.8212086E-1,-1.0103123E0,-3.2005543E-1,7.0321524E-1,1.1381805E0,7.162208E-2,-9.404732E-1,-1.5418106E-1,-4.5107785E-1,5.9804562E-2,-7.976579E-2,-5.54067E-1,-3.1471387E-1,1.0487792E-1,-2.2414073E-3,2.9690543E-1,2.9669832E-2,2.7328342E-1,-1.9139452E-1,2.4344799E-1,2.3110448E-1,-6.094177E-2,8.84402E-2,2.2971353E-1,1.5712677E-2,2.6834363E-1,-2.81396E-1,-1.013366E-1,7.436286E-2,-1.370935E-1,-2.3903093E-1,-6.2000778E-2,3.0876007E-2,-3.0915147E-1,-1.7913994E-1,1.8188368E-1,2.9034126E-1,1.6594192E-2,2.1268569E-1,4.9673292E-1,-3.1040305E-1,-3.2647297E-2,-2.863022E-1,3.2286968E-2],"categories":[],"categories_nodes":[],"categories_segments":[],"categories_sizes":[],"default_left":[0,0,0,0,0,0,0,0,0,0,0,0,0,0,0,0,0,0,0,0,0,0,0,0,0,0,0,0,0,0,0,0,0,0,0,0,0,0,0,0,0,0,0,0,0,0,0,0,0,0,0,0,0,0,0,0,0,0,0,0,0,0,0,0,0,0,0,0,0,0,0,0,0,0,0,0,0,0,0,0,0],"id":7,"left_children":[1,3,5,7,-1,9,11,13,15,17,19,21,23,25,27,29,31,33,-1,35,-1,37,39,41,43,45,47,49,51,53,55,57,-1,59,61,63,65,67,69,71,73,75,-1,77,79,-1,-1,-1,-1,-1,-1,-1,-1,-1,-1,-1,-1,-1,-1,-1,-1,-1,-1,-1,-1,-1,-1,-1,-1,-1,-1,-1,-1,-1,-1,-1,-1,-1,-1,-1,-1],"loss_changes":[1.2255241E2,6.0288315E0,1.1432887E2,2.3039982E1,0E0,1.3396929E1,1.6134117E1,1.3933552E1,3.0498009E0,1.3105951E1,4.832742E0,6.705612E0,1.3593335E1,4.2356377E0,4.3202205E0,4.9354343E0,5.86071E-1,7.6055374E0,0E0,1.1341181E0,0E0,5.0539246E0,2.6925733E0,6.1878014E-1,4.009257E0,6.11492E0,1.466835E0,2.0006979E0,1.5575976E0,5.513277E-1,6.586449E0,1.0765378E0,0E0,3.2199478E0,1.0408818E1,5.3419304E-1,6.48013E-1,6.6331215E0,2.1934967E0,2.3006396E0,6.151836E-1,4.5350552E-1,0E0,6.265497E-1,5.0095596E0,0E0,0E0,0E0,0E0,0E0,0E0,0E0,0E0,0E0,0E0,0E0,0E0,0E0,0E0,0E0,0E0,0E0,0E0,0E0,0E0,0E0,0E0,0E0,0E0,0E0,0E0,0E0,0E0,0E0,0E0,0E0,0E0,0E0,0E0,0E0,0E0],"parents":[2147483647,0,0,1,1,2,2,3,3,5,5,6,6,7,7,8,8,9,9,10,10,11,11,12,12,13,13,14,14,15,15,16,16,17,17,19,19,21,21,22,22,23,23,24,24,25,25,26,26,27,27,28,28,29,29,30,30,31,31,33,33,34,34,35,35,36,36,37,37,38,38,39,39,40,40,41,41,43,43,44,44],"right_children":[2,4,6,8,-1,10,12,14,16,18,20,22,24,26,28,30,32,34,-1,36,-1,38,40,42,44,46,48,50,52,54,56,58,-1,60,62,64,66,68,70,72,74,76,-1,78,80,-1,-1,-1,-1,-1,-1,-1,-1,-1,-1,-1,-1,-1,-1,-1,-1,-1,-1,-1,-1,-1,-1,-1,-1,-1,-1,-1,-1,-1,-1,-1,-1,-1,-1,-1,-1],"split_conditions":[0E0,8.57143E-1,3.61E-3,8.33333E-1,3.1183997E-1,1.802E-3,3.75E-1,7.9137E-2,8.75E-1,1E0,3.52601E-1,1E0,3.78378E-1,1E0,1.35965E-1,2.38095E-1,1E0,1.1236E-2,-3.0274576E-1,1.63265E-1,2.1918707E-1,1E0,1E0,1.802E-3,1E0,7.4359E-1,4.23077E-1,1E0,1.21951E-1,1E0,1E0,1E0,3.1279877E-1,1E0,1E0,1E0,2.14286E-1,8.57143E-1,2.7523E-2,1E0,3.63636E-1,4.48276E-1,7.162208E-2,5.3371E-2,4.28571E-1,-4.5107785E-1,5.9804562E-2,-7.976579E-2,-5.54067E-1,-3.1471387E-1,1.0487792E-1,-2.2414073E-3,2.9690543E-1,2.9669832E-2,2.7328342E-1,-1.9139452E-1,2.4344799E-1,2.3110448E-1,-6.094177E-2,8.84402E-2,2.2971353E-1,1.5712677E-2,2.6834363E-1,-2.81396E-1,-1.013366E-1,7.436286E-2,-1.370935E-1,-2.3903093E-1,-6.2000778E-2,3.0876007E-2,-3.0915147E-1,-1.7913994E-1,1.8188368E-1,2.9034126E-1,1.6594192E-2,2.1268569E-1,4.9673292E-1,-3.1040305E-1,-3.2647297E-2,-2.863022E-1,3.2286968E-2],"split_indices":[17,8,1,1,0,8,1,8,2,13,8,0,1,14,1,2,4,2,0,8,0,14,6,8,4,1,2,16,8,4,3,14,0,4,3,3,8,2,2,3,2,2,0,8,1,0,0,0,0,0,0,0,0,0,0,0,0,0,0,0,0,0,0,0,0,0,0,0,0,0,0,0,0,0,0,0,0,0,0,0,0],"split_type":[0,0,0,0,0,0,0,0,0,0,0,0,0,0,0,0,0,0,0,0,0,0,0,0,0,0,0,0,0,0,0,0,0,0,0,0,0,0,0,0,0,0,0,0,0,0,0,0,0,0,0,0,0,0,0,0,0,0,0,0,0,0,0,0,0,0,0,0,0,0,0,0,0,0,0,0,0,0,0,0,0],"sum_hessian":[6.188522E2,1.5888112E2,4.5997104E2,1.06396126E2,5.2484985E1,1.9621222E2,2.6375882E2,2.4712208E1,8.168392E1,1.7828969E2,1.792253E1,2.2502293E2,3.873589E1,1.2636576E1,1.2075632E1,2.9181871E1,5.250205E1,1.7284062E2,5.4490695E0,1.5905961E1,2.0165684E0,2.1556903E2,9.453902E0,7.8779078E0,3.085798E1,7.8509727E0,4.7856035E0,2.5167158E0,9.558916E0,1.8529316E1,1.0652555E1,3.0948381E0,4.940721E1,8.722787E1,8.5612755E1,1.2598678E1,3.3072836E0,1.2370715E2,9.186188E1,6.5530305E0,2.9008715E0,6.3250027E0,1.5529054E0,8.434608E0,2.2423372E1,2.1872969E0,5.663676E0,1.1022835E0,3.6833198E0,1.4012432E0,1.1154726E0,1.8939918E0,7.6649246E0,1.1484737E0,1.7380842E1,5.92166E0,4.7308955E0,1.7213488E0,1.3734894E0,2.0757704E1,6.647016E1,6.783092E1,1.7781836E1,8.992227E0,3.606451E0,1.7556924E0,1.5515914E0,9.912793E1,2.457922E1,1.5635772E0,9.02983E1,5.317795E0,1.2352357E0,1.7091421E0,1.1917293E0,4.7530932E0,1.5719092E0,7.3571167E0,1.0774924E0,4.8758707E0,1.7547503E1],"tree_param":{"num_deleted":"0","num_feature":"18","num_nodes":"81","size_leaf_vector":"1"}},{"base_weights":[2.9361956E-3,6.9136524E-1,-2.2116153E-1,5.4763526E-1,3.0876353E-1,2.548074E-1,-6.037867E-1,-8.2983E-2,7.988018E-1,1.5370323E-1,8.919956E-1,-6.661707E-1,3.608359E-1,-6.8430805E-1,5.716852E-1,8.749356E-1,1.5008499E-1,4.0819517E-1,-7.950508E-2,3.3141482E-1,5.2640927E-3,-4.399077E-1,-8.791184E-1,5.710279E-1,-1.7387755E-1,-1.2378565E0,-2.5583997E-1,8.160685E-1,-3.0014858E-1,1.367366E-1,9.3838084E-1,-2.5938234E-1,2.3504025E-1,-5.6547698E-2,6.2729776E-1,6.331849E-1,-2.868931E-1,-1.72631E-1,1.7683613E-1,-5.604407E-1,5.83643E-1,-1.5967669E-1,-9.2500705E-1,6.2410545E-2,2.7845126E-1,-2.172399E-1,2.377848E-1,-4.723557E-1,-1.7951326E-1,1.5987125E-1,-2.1987501E-1,1.05649106E-1,2.7339458E-1,-3.723124E-1,1.5484677E-1,-2.9678695E-2,1.7940111E-1,3.0061552E-1,1.938794E-1,-2.3170821E-1,1.2750007E-1,-6.791382E-2,2.4788834E-1,1.9232862E-1,8.026705E-3,-9.215752E-2,2.3806158E-1,-1.5731111E-1,2.1186785E-1,-1.9477738E-1,1.3495153E-1,2.7803612E-1,-2.374728E-1,-2.700554E-1,1.8027931E-1,-2.8734484E-1,-1.1804225E-1,-2.0735364E-1,1.800031E-1,2.0004065E-1,-7.5440414E-2],"categories":[],"categories_nodes":[],"categories_segments":[],"categories_sizes":[],"default_left":[0,0,0,0,0,0,0,0,0,0,0,0,0,0,0,0,0,0,0,0,0,0,0,0,0,0,0,0,0,0,0,0,0,0,0,0,0,0,0,0,0,0,0,0,0,0,0,0,0,0,0,0,0,0,0,0,0,0,0,0,0,0,0,0,0,0,0,0,0,0,0,0,0,0,0,0,0,0,0,0,0],"id":8,"left_children":[1,3,5,7,-1,9,11,13,15,17,19,21,23,25,27,29,31,33,35,-1,37,39,41,43,45,47,49,51,53,55,57,59,-1,61,63,65,67,-1,-1,69,71,73,75,77,-1,-1,79,-1,-1,-1,-1,-1,-1,-1,-1,-1,-1,-1,-1,-1,-1,-1,-1,-1,-1,-1,-1,-1,-1,-1,-1,-1,-1,-1,-1,-1,-1,-1,-1,-1,-1],"loss_changes":[8.1586296E1,5.7426834E0,7.281414E1,1.4835627E1,0E0,1.1362471E1,1.3567879E1,1.1203756E1,3.1669235E0,9.247447E0,4.56583E0,9.652985E0,1.6842041E0,3.1867762E0,3.162744E0,2.6611595E0,2.335397E0,7.6121826E0,1.2280551E1,0E0,2.2708378E0,1.3037842E1,3.3630981E0,1.8232212E0,1.2471743E0,3.8929272E-1,3.9980788E0,1.6357279E-1,3.5049484E0,6.988127E-1,3.6932373E-1,2.3450017E0,0E0,3.8990643E0,4.025402E-1,3.0730696E0,1.548675E1,0E0,0E0,8.608595E0,6.086932E0,4.8129964E0,1.362793E0,2.5797734E0,0E0,0E0,8.9550346E-1,0E0,0E0,0E0,0E0,0E0,0E0,0E0,0E0,0E0,0E0,0E0,0E0,0E0,0E0,0E0,0E0,0E0,0E0,0E0,0E0,0E0,0E0,0E0,0E0,0E0,0E0,0E0,0E0,0E0,0E0,0E0,0E0,0E0,0E0],"parents":[2147483647,0,0,1,1,2,2,3,3,5,5,6,6,7,7,8,8,9,9,10,10,11,11,12,12,13,13,14,14,15,15,16,16,17,17,18,18,20,20,21,21,22,22,23,23,24,24,25,25,26,26,27,27,28,28,29,29,30,30,31,31,33,33,34,34,35,35,36,36,39,39,40,40,41,41,42,42,43,43,46,46],"right_children":[2,4,6,8,-1,10,12,14,16,18,20,22,24,26,28,30,32,34,36,-1,38,40,42,44,46,48,50,52,54,56,58,60,-1,62,64,66,68,-1,-1,70,72,74,76,78,-1,-1,80,-1,-1,-1,-1,-1,-1,-1,-1,-1,-1,-1,-1,-1,-1,-1,-1,-1,-1,-1,-1,-1,-1,-1,-1,-1,-1,-1,-1,-1,-1,-1,-1,-1,-1],"split_conditions":[0E0,9.33333E-1,3.61E-3,8.33333E-1,3.0876353E-1,1E0,1E0,1.12554E-1,1E0,1.1236E-2,1E0,1.802E-3,1E0,7.4359E-1,7.29167E-1,1E0,1E0,1E0,0E0,3.3141482E-1,1E0,1E0,2.7523E-2,0E0,8.78788E-1,1E0,1.76471E-1,3.61E-3,1.69355E-1,1E0,1E0,1E0,2.3504025E-1,1E0,1E0,1E0,1E0,-1.72631E-1,1.7683613E-1,1E0,1E0,5.4795E-2,1.44172E-1,3.54839E-1,2.7845126E-1,-2.172399E-1,9.69231E-1,-4.723557E-1,-1.7951326E-1,1.5987125E-1,-2.1987501E-1,1.05649106E-1,2.7339458E-1,-3.723124E-1,1.5484677E-1,-2.9678695E-2,1.7940111E-1,3.0061552E-1,1.938794E-1,-2.3170821E-1,1.2750007E-1,-6.791382E-2,2.4788834E-1,1.9232862E-1,8.026705E-3,-9.215752E-2,2.3806158E-1,-1.5731111E-1,2.1186785E-1,-1.9477738E-1,1.3495153E-1,2.7803612E-1,-2.374728E-1,-2.700554E-1,1.8027931E-1,-2.8734484E-1,-1.1804225E-1,-2.0735364E-1,1.800031E-1,2.0004065E-1,-7.5440414E-2],"split_indices":[17,8,1,1,0,0,9,8,5,2,5,8,14,1,2,4,3,4,16,0,16,2,2,16,2,9,2,1,1,6,6,1,0,9,6,4,3,0,0,3,13,8,8,1,0,0,2,0,0,0,0,0,0,0,0,0,0,0,0,0,0,0,0,0,0,0,0,0,0,0,0,0,0,0,0,0,0,0,0,0,0],"split_type":[0,0,0,0,0,0,0,0,0,0,0,0,0,0,0,0,0,0,0,0,0,0,0,0,0,0,0,0,0,0,0,0,0,0,0,0,0,0,0,0,0,0,0,0,0,0,0,0,0,0,0,0,0,0,0,0,0,0,0,0,0,0,0,0,0,0,0,0,0,0,0,0,0,0,0,0,0,0,0,0,0],"sum_hessian":[5.2684436E2,1.2887004E2,3.9797433E2,9.224656E1,3.6623474E1,1.7750276E2,2.2047157E2,2.6466131E1,6.578043E1,1.5426619E2,2.3236563E1,2.0736996E2,1.3101617E1,1.3771486E1,1.2694644E1,5.855917E1,7.221261E0,7.340814E1,8.085805E1,1.8542519E1,4.6940455E0,1.0202804E2,1.0534193E2,9.355948E0,3.7456691E0,5.1844897E0,8.586997E0,9.965253E0,2.729391E0,4.8843126E0,5.367486E1,4.7445188E0,2.4767423E0,2.3757517E1,4.965063E1,1.7762835E1,6.3095215E1,2.361566E0,2.3324792E0,9.168383E1,1.0344207E1,6.584825E0,9.87571E1,4.344117E0,5.011831E0,1.2781554E0,2.4675136E0,2.4385118E0,2.7459776E0,3.1922596E0,5.3947377E0,2.4976573E0,7.4675956E0,1.0262238E0,1.7031674E0,3.7526016E0,1.1317109E0,4.2073933E1,1.16009245E1,2.6383755E0,2.1061432E0,2.0548244E1,3.2092721E0,4.8469505E1,1.1811254E0,2.4542775E0,1.5308557E1,5.130018E1,1.1795035E1,8.460339E1,7.080433E0,8.539512E0,1.8046945E0,3.2435153E0,3.3413098E0,9.226031E1,6.4967914E0,1.6897739E0,2.6543434E0,1.1213353E0,1.3461784E0],"tree_param":{"num_deleted":"0","num_feature":"18","num_nodes":"81","size_leaf_vector":"1"}},{"base_weights":[6.7717996E-3,6.2534803E-1,-1.8180573E-1,4.7971913E-1,3.019486E-1,2.1112476E-1,-5.245053E-1,-7.2506085E-2,7.3147184E-1,1.2857589E-1,7.759945E-1,-7.2312844E-1,-1.8097635E-1,-5.335708E-1,4.8355648E-1,3.8574454E-1,9.399686E-1,2.1037161E-1,-5.726613E-1,9.9591976E-1,1.2049499E-2,-8.2920843E-1,-2.649047E-1,6.715174E-1,-4.144056E-1,-8.1071377E-1,7.9405256E-2,7.2605044E-1,-2.5078425E-1,7.227082E-1,-1.1368563E-1,3.202206E-1,2.9567316E-1,2.5423518E-1,-2.7672493E-1,-7.6074433E-1,1.3151146E-1,3.13918E-1,1.11297764E-1,-4.2095736E-1,1.5411122E-1,-8.852155E-1,4.492379E-1,8.1311125E-1,-5.9739333E-1,-5.70633E-1,9.7939295E-1,-7.93288E-1,8.614832E-4,-1.0672195E-2,-4.4061643E-1,2.3955484E-1,-2.7751273E-1,8.851695E-2,2.4743004E-1,-3.5266075E-1,1.5458427E-1,2.9355818E-1,1.2063019E-1,-1.6241057E-1,2.1414791E-1,1.9378588E-1,-5.0270446E-2,5.31542E-2,2.2466695E-1,-1.3207053E-1,-3.024997E-1,-2.2403957E-1,1.9050792E-3,-2.866365E-1,-9.820478E-2,2.8473383E-1,-1.8589978E-1,-2.09226E-1,1.22949384E-1,-4.8786703E-2,-2.1408714E-1,1.9638823E-1,6.236105E-1,-2.6535237E-1,1.6090141E-1,1.5982603E-1,-2.3463659E-1],"categories":[],"categories_nodes":[],"categories_segments":[],"categories_sizes":[],"default_left":[0,0,0,0,0,0,0,0,0,0,0,0,0,0,0,0,0,0,0,0,0,0,0,0,0,0,0,0,0,0,0,0,0,0,0,0,0,0,0,0,0,0,0,0,0,0,0,0,0,0,0,0,0,0,0,0,0,0,0,0,0,0,0,0,0,0,0,0,0,0,0,0,0,0,0,0,0,0,0,0,0,0,0],"id":9,"left_children":[1,3,5,7,-1,9,11,13,15,17,19,21,23,25,27,29,31,33,35,37,39,41,43,45,47,49,51,53,55,57,59,61,-1,63,-1,65,-1,-1,-1,67,-1,69,71,-1,73,75,77,79,81,-1,-1,-1,-1,-1,-1,-1,-1,-1,-1,-1,-1,-1,-1,-1,-1,-1,-1,-1,-1,-1,-1,-1,-1,-1,-1,-1,-1,-1,-1,-1,-1,-1,-1],"loss_changes":[5.3423195E1,5.456127E0,4.7376575E1,1.108152E1,0E0,7.5583296E0,1.2681572E1,6.859828E0,3.5715408E0,8.408248E0,3.472866E0,5.5476227E0,1.4233402E1,2.5366569E0,2.3540585E0,3.8228972E0,6.2706184E-1,6.7003884E0,3.2547498E0,1.1941433E-1,1.443259E0,7.262497E0,2.5136833E1,6.4697294E0,8.759841E0,5.1048527E0,4.6694117E0,1.5768576E-1,3.2772775E0,7.062845E-1,3.8615816E0,7.0682645E-1,0E0,4.6722183E0,0E0,6.1295605E-1,0E0,0E0,0E0,5.033977E-1,0E0,3.29953E0,3.092599E0,0E0,2.5227718E0,9.992111E-2,3.192728E0,4.0053425E0,1.189405E1,0E0,0E0,0E0,0E0,0E0,0E0,0E0,0E0,0E0,0E0,0E0,0E0,0E0,0E0,0E0,0E0,0E0,0E0,0E0,0E0,0E0,0E0,0E0,0E0,0E0,0E0,0E0,0E0,0E0,0E0,0E0,0E0,0E0,0E0],"parents":[2147483647,0,0,1,1,2,2,3,3,5,5,6,6,7,7,8,8,9,9,10,10,11,11,12,12,13,13,14,14,15,15,16,16,17,17,18,18,19,19,20,20,21,21,22,22,23,23,24,24,25,25,26,26,27,27,28,28,29,29,30,30,31,31,33,33,35,35,39,39,41,41,42,42,44,44,45,45,46,46,47,47,48,48],"right_children":[2,4,6,8,-1,10,12,14,16,18,20,22,24,26,28,30,32,34,36,38,40,42,44,46,48,50,52,54,56,58,60,62,-1,64,-1,66,-1,-1,-1,68,-1,70,72,-1,74,76,78,80,82,-1,-1,-1,-1,-1,-1,-1,-1,-1,-1,-1,-1,-1,-1,-1,-1,-1,-1,-1,-1,-1,-1,-1,-1,-1,-1,-1,-1,-1,-1,-1,-1,-1,-1],"split_conditions":[0E0,9.33333E-1,3.61E-3,8.33333E-1,3.019486E-1,1E0,2E-1,1.12554E-1,8.75E-1,1.802E-3,1E0,1E0,3.0303E-2,8.88889E-1,7.29167E-1,2.38095E-1,1E0,1E0,2.64706E-1,7.29167E-1,1E0,1E0,4.0625E-1,1E0,6.72414E-1,2.30769E-1,1E0,3.61E-3,1.35965E-1,1E0,1E0,1E0,2.9567316E-1,1E0,-2.7672493E-1,2.05128E-1,1.3151146E-1,3.13918E-1,1.11297764E-1,2.05128E-1,1.5411122E-1,1E0,1.802E-3,8.1311125E-1,1.66667E-1,3.54839E-1,2.5974E-2,1E0,1.2085E-2,-1.0672195E-2,-4.4061643E-1,2.3955484E-1,-2.7751273E-1,8.851695E-2,2.4743004E-1,-3.5266075E-1,1.5458427E-1,2.9355818E-1,1.2063019E-1,-1.6241057E-1,2.1414791E-1,1.9378588E-1,-5.0270446E-2,5.31542E-2,2.2466695E-1,-1.3207053E-1,-3.024997E-1,-2.2403957E-1,1.9050792E-3,-2.866365E-1,-9.820478E-2,2.8473383E-1,-1.8589978E-1,-2.09226E-1,1.22949384E-1,-4.8786703E-2,-2.1408714E-1,1.9638823E-1,6.236105E-1,-2.6535237E-1,1.6090141E-1,1.5982603E-1,-2.3463659E-1],"split_indices":[17,8,1,1,0,0,1,8,2,8,5,3,2,2,2,2,4,13,8,2,16,2,2,4,2,2,14,1,1,16,1,14,0,9,0,2,0,0,0,2,0,6,8,0,8,1,2,3,8,0,0,0,0,0,0,0,0,0,0,0,0,0,0,0,0,0,0,0,0,0,0,0,0,0,0,0,0,0,0,0,0,0,0],"split_type":[0,0,0,0,0,0,0,0,0,0,0,0,0,0,0,0,0,0,0,0,0,0,0,0,0,0,0,0,0,0,0,0,0,0,0,0,0,0,0,0,0,0,0,0,0,0,0,0,0,0,0,0,0,0,0,0,0,0,0,0,0,0,0,0,0,0,0,0,0,0,0,0,0,0,0,0,0,0,0,0,0,0,0],"sum_hessian":[4.5600555E2,1.059967E2,3.5000888E2,7.8327805E1,2.766889E1,1.6323349E2,1.8677538E2,2.4750036E1,5.357777E1,1.4349156E2,1.9741934E1,1.1764806E2,6.912731E1,1.3552936E1,1.1197102E1,2.1227936E1,3.2349834E1,1.2912929E2,1.436227E1,1.5093226E1,4.6487074E0,9.487471E1,2.2773355E1,1.4456136E1,5.4671173E1,9.111014E0,4.4419217E0,8.425968E0,2.7711337E0,1.240874E1,8.819196E0,2.767328E0,2.9582506E1,1.25062225E2,4.067063E0,1.2318255E1,2.0440152E0,1.3341269E1,1.7519584E0,2.581408E0,2.0672996E0,9.118749E1,3.6872199E0,1.5702448E0,2.120311E1,2.7018473E0,1.1754288E1,2.8111986E1,2.6559187E1,4.667139E0,4.4438753E0,2.7081234E0,1.733798E0,2.3136292E0,6.1123385E0,1.0133554E0,1.7577782E0,5.7603455E0,6.6483946E0,6.0421963E0,2.777E0,1.4648758E0,1.3024522E0,1.0938157E2,1.5680653E1,6.5792875E0,5.738968E0,1.0403847E0,1.5410234E0,8.035723E1,1.083026E1,2.5886855E0,1.0985342E0,1.9567463E1,1.6356462E0,1.2558085E0,1.446039E0,1.030531E1,1.4489781E0,2.6620441E1,1.4915451E0,1.6005802E1,1.0553387E1],"tree_param":{"num_deleted":"0","num_feature":"18","num_nodes":"83","size_leaf_vector":"1"}},{"base_weights":[5.792797E-3,5.6110996E-1,-1.5241723E-1,4.1783106E-1,2.955154E-1,4.6771444E-2,-6.7095584E-1,-6.335883E-2,6.6224545E-1,1.3273486E-1,-7.900716E-1,-7.890815E-1,1.6929969E-1,-4.1286063E-1,4.2292395E-1,3.3040172E-1,8.9595705E-1,-3.51629E-1,2.568398E-1,-2.2101507E-1,-2.9692155E-1,-8.292374E-1,4.5530108E-1,4.8541322E-1,-1.9619569E-1,-8.791604E-1,-6.424275E-2,-2.4856697E-1,6.565387E-1,1.0817755E-2,8.446763E-1,2.7331257E-1,9.5427585E-1,7.614526E-2,-7.8718555E-1,3.708291E-1,-3.6513364E-1,4.0165675E-1,-7.4300086E-1,-5.7093805E-1,-8.989473E-1,2.6522228E-2,1.7794228E-1,7.552903E-2,1.2566333E0,-2.9405755E-1,-9.046527E-2,1.3600509E-1,-1.106594E-1,-1.387549E-1,2.92063E-2,2.6002234E-1,4.8279792E-2,1.3213915E-1,-1.5088621E-1,2.7020213E-1,7.13141E-2,1.665953E-1,-4.2380776E-2,9.504304E-2,2.9736164E-1,-5.673458E-2,2.2575888E-1,-2.809083E-1,-2.3504486E-2,2.9436156E-2,2.0221205E-1,1.8518323E-1,-2.7589494E-1,-2.6815084E-1,-4.6921684E-3,1.2666643E-1,-1.963492E-1,-1.2834038E-1,-2.85876E-1,1.1984926E-1,-6.7003764E-2,5.3450567E-1,3.6243014E-2],"categories":[],"categories_nodes":[],"categories_segments":[],"categories_sizes":[],"default_left":[0,0,0,0,0,0,0,0,0,0,0,0,0,0,0,0,0,0,0,0,0,0,0,0,0,0,0,0,0,0,0,0,0,0,0,0,0,0,0,0,0,0,0,0,0,0,0,0,0,0,0,0,0,0,0,0,0,0,0,0,0,0,0,0,0,0,0,0,0,0,0,0,0,0,0,0,0,0,0],"id":10,"left_children":[1,3,5,7,-1,9,11,13,15,17,19,21,23,25,27,29,31,33,35,37,-1,39,41,43,-1,45,47,49,51,53,55,57,59,61,63,65,67,-1,69,71,73,-1,-1,75,77,-1,-1,-1,-1,-1,-1,-1,-1,-1,-1,-1,-1,-1,-1,-1,-1,-1,-1,-1,-1,-1,-1,-1,-1,-1,-1,-1,-1,-1,-1,-1,-1,-1,-1],"loss_changes":[3.5501366E1,5.0305634E0,3.2516617E1,8.121736E0,0E0,1.6518425E1,8.803715E0,4.262701E0,3.2440948E0,1.2579449E1,2.212554E0,4.2132645E0,3.3337374E0,2.3008335E0,1.8185788E0,3.3514311E0,6.9051933E-1,8.034124E0,1.1902136E1,6.568536E0,0E0,8.320999E-1,1.01564705E-1,2.7337642E0,0E0,6.1839104E-2,1.6456133E0,3.002928E-1,7.047167E-1,3.228798E0,5.1808357E-2,5.0461185E-1,2.4046707E-1,4.179916E0,2.178339E0,1.1572796E1,1.4845636E1,0E0,6.192951E-1,1.8215432E0,1.0442543E0,0E0,0E0,7.5799596E-1,1.5985713E0,0E0,0E0,0E0,0E0,0E0,0E0,0E0,0E0,0E0,0E0,0E0,0E0,0E0,0E0,0E0,0E0,0E0,0E0,0E0,0E0,0E0,0E0,0E0,0E0,0E0,0E0,0E0,0E0,0E0,0E0,0E0,0E0,0E0,0E0],"parents":[2147483647,0,0,1,1,2,2,3,3,5,5,6,6,7,7,8,8,9,9,10,10,11,11,12,12,13,13,14,14,15,15,16,16,17,17,18,18,19,19,21,21,22,22,23,23,25,25,26,26,27,27,28,28,29,29,30,30,31,31,32,32,33,33,34,34,35,35,36,36,38,38,39,39,40,40,43,43,44,44],"right_children":[2,4,6,8,-1,10,12,14,16,18,20,22,24,26,28,30,32,34,36,38,-1,40,42,44,-1,46,48,50,52,54,56,58,60,62,64,66,68,-1,70,72,74,-1,-1,76,78,-1,-1,-1,-1,-1,-1,-1,-1,-1,-1,-1,-1,-1,-1,-1,-1,-1,-1,-1,-1,-1,-1,-1,-1,-1,-1,-1,-1,-1,-1,-1,-1,-1,-1],"split_conditions":[0E0,9.33333E-1,1.802E-3,8.33333E-1,2.955154E-1,1E0,1.66667E-1,1.21951E-1,8.75E-1,1E0,4.1667E-2,1E0,1E0,7.4359E-1,3.61E-3,1E0,1E0,1.1236E-2,1E0,1E0,-2.9692155E-1,0E0,3.8462E-2,1E0,-1.9619569E-1,7.05882E-1,1.76471E-1,1E0,1E0,2.27273E-1,3.91304E-1,1E0,9.61538E-1,1E0,1E0,1.5E-1,1.86047E-1,4.0165675E-1,3.40909E-1,7.05882E-1,3.5714E-2,2.6522228E-2,1.7794228E-1,3.8462E-2,1.85714E-1,-2.9405755E-1,-9.046527E-2,1.3600509E-1,-1.106594E-1,-1.387549E-1,2.92063E-2,2.6002234E-1,4.8279792E-2,1.3213915E-1,-1.5088621E-1,2.7020213E-1,7.13141E-2,1.665953E-1,-4.2380776E-2,9.504304E-2,2.9736164E-1,-5.673458E-2,2.2575888E-1,-2.809083E-1,-2.3504486E-2,2.9436156E-2,2.0221205E-1,1.8518323E-1,-2.7589494E-1,-2.6815084E-1,-4.6921684E-3,1.2666643E-1,-1.963492E-1,-1.2834038E-1,-2.85876E-1,1.1984926E-1,-6.7003764E-2,5.3450567E-1,3.6243014E-2],"split_indices":[17,8,8,1,0,13,8,8,2,4,2,0,14,1,1,3,4,2,14,16,0,16,8,3,0,1,2,5,5,2,2,14,2,14,3,2,2,0,1,2,2,0,0,2,8,0,0,0,0,0,0,0,0,0,0,0,0,0,0,0,0,0,0,0,0,0,0,0,0,0,0,0,0,0,0,0,0,0,0],"split_type":[0,0,0,0,0,0,0,0,0,0,0,0,0,0,0,0,0,0,0,0,0,0,0,0,0,0,0,0,0,0,0,0,0,0,0,0,0,0,0,0,0,0,0,0,0,0,0,0,0,0,0,0,0,0,0,0,0,0,0,0,0,0,0,0,0,0,0,0,0,0,0,0,0,0,0,0,0,0,0],"sum_hessian":[4.0210895E2,8.859475E1,3.135142E2,6.769989E1,2.0894861E1,2.2716286E2,8.635133E1,2.305373E1,4.464616E1,2.0676465E2,2.03982E1,7.576146E1,1.0589875E1,1.3501151E1,9.552579E0,1.9447147E1,2.5199015E1,4.1798347E1,1.6496631E2,5.84544E0,1.4552758E1,7.371627E1,2.0451858E0,7.9483676E0,2.6415076E0,5.1246896E0,8.376461E0,2.449075E0,7.1035037E0,1.2623563E1,6.8235846E0,2.6450887E0,2.2553926E1,2.1503872E1,2.0294474E1,1.397568E2,2.5209496E1,1.0732569E0,4.7721834E0,1.7619629E1,5.609664E1,1.0067796E0,1.0384064E0,5.906921E0,2.0414464E0,3.7685428E0,1.3561469E0,2.9225025E0,5.4539585E0,1.3049302E0,1.1441448E0,4.4621243E0,2.6413796E0,6.9523153E0,5.6712475E0,5.8041954E0,1.019389E0,1.3722191E0,1.2728697E0,1.7595725E0,2.0794353E1,1.59637165E1,5.540156E0,1.650087E1,3.7936046E0,7.427623E1,6.548058E1,9.054632E0,1.6154863E1,3.762967E0,1.0092161E0,1.0528483E0,1.656678E1,6.683174E0,4.9413467E1,2.6729157E0,3.2340052E0,1.0072157E0,1.0342307E0],"tree_param":{"num_deleted":"0","num_feature":"18","num_nodes":"79","size_leaf_vector":"1"}},{"base_weights":[4.1048583E-3,9.469316E-2,-7.859291E-1,-3.2559007E-2,5.701264E-1,-8.3421034E-1,1.6711054E-2,3.34256E-1,-2.0273249E-1,1.500379E-3,6.734099E-1,-3.0276355E-1,-9.641769E-1,2.0695099E-1,8.7333274E-1,-3.38534E-1,2.4457167E-1,2.6672986E-1,-5.469574E-1,8.0831087E-1,1.8485211E-1,2.5130144E-1,-7.142065E-1,-1.0612256E-1,-2.9692486E-1,-2.0297518E-1,3.9648306E-1,2.820643E-1,5.5922706E-2,5.6348574E-1,-4.6905652E-1,1.1931636E0,-5.317583E-1,4.6499825E-1,-8.1472225E-2,-2.1664564E-1,-9.521654E-3,8.650528E-1,4.9949944E-2,-2.4446303E-1,2.304029E-1,-2.626996E-1,-3.8364984E-2,-1.4615668E-1,1.706994E-1,8.929552E-2,2.7646932E-1,2.5689197E-1,-1.5090068E-1,-1.5829457E-1,2.824306E-1,3.9245656E-1,1.6919729E-1,-6.810922E-2,-3.6113092E-1,2.4132447E-1,-2.0770556E-3,2.7324358E-1,1.5579486E-1,-1.145925E-1,1.2671854E-1,2.3311323E-1,-1.8303514E-1],"categories":[],"categories_nodes":[],"categories_segments":[],"categories_sizes":[],"default_left":[0,0,0,0,0,0,0,0,0,0,0,0,0,0,0,0,0,0,0,0,0,0,0,0,0,0,0,0,0,0,0,0,0,0,0,0,0,0,0,0,0,0,0,0,0,0,0,0,0,0,0,0,0,0,0,0,0,0,0,0,0,0,0],"id":11,"left_children":[1,3,5,7,9,11,-1,13,15,17,19,21,23,25,27,29,31,33,35,37,39,-1,41,-1,-1,43,45,-1,-1,47,49,51,53,55,-1,-1,-1,57,59,61,-1,-1,-1,-1,-1,-1,-1,-1,-1,-1,-1,-1,-1,-1,-1,-1,-1,-1,-1,-1,-1,-1,-1],"loss_changes":[2.5987759E1,1.972499E1,1.5643597E0,1.616632E1,4.0412655E0,2.1524944E0,0E0,5.453985E0,1.0821934E1,1.8307348E0,3.689415E0,4.5453205E0,8.6639404E-2,5.342804E0,5.3109837E-1,1.6280529E1,3.1383125E1,1.0312481E0,3.474468E-1,1.9081001E0,3.6676154E0,0E0,5.2431655E-1,0E0,0E0,5.12084E0,2.1468396E0,0E0,0E0,5.942833E0,1.0363304E1,6.4450073E-1,4.570531E0,1.05721E0,0E0,0E0,0E0,1.9350052E-1,8.3988905E-1,3.7477195E0,0E0,0E0,0E0,0E0,0E0,0E0,0E0,0E0,0E0,0E0,0E0,0E0,0E0,0E0,0E0,0E0,0E0,0E0,0E0,0E0,0E0,0E0,0E0],"parents":[2147483647,0,0,1,1,2,2,3,3,4,4,5,5,7,7,8,8,9,9,10,10,11,11,12,12,13,13,14,14,15,15,16,16,17,17,18,18,19,19,20,20,22,22,25,25,26,26,29,29,30,30,31,31,32,32,33,33,37,37,38,38,39,39],"right_children":[2,4,6,8,10,12,-1,14,16,18,20,22,24,26,28,30,32,34,36,38,40,-1,42,-1,-1,44,46,-1,-1,48,50,52,54,56,-1,-1,-1,58,60,62,-1,-1,-1,-1,-1,-1,-1,-1,-1,-1,-1,-1,-1,-1,-1,-1,-1,-1,-1,-1,-1,-1,-1],"split_conditions":[1E0,1E0,8.33333E-1,1.1236E-2,1E0,4.1667E-2,1.6711054E-2,1E0,1E0,1E0,1E0,1E0,3.61E-3,1E0,2.22222E-1,0E0,6.72414E-1,1E0,1E0,1E0,9.80392E-1,2.5130144E-1,1E0,-1.0612256E-1,-2.9692486E-1,1E0,1.08434E-1,2.820643E-1,5.5922706E-2,1E0,2E0,4.0625E-1,0E0,6.42857E-1,-8.1472225E-2,-2.1664564E-1,-9.521654E-3,1E0,9E-1,2.27273E-1,2.304029E-1,-2.626996E-1,-3.8364984E-2,-1.4615668E-1,1.706994E-1,8.929552E-2,2.7646932E-1,2.5689197E-1,-1.5090068E-1,-1.5829457E-1,2.824306E-1,3.9245656E-1,1.6919729E-1,-6.810922E-2,-3.6113092E-1,2.4132447E-1,-2.0770556E-3,2.7324358E-1,1.5579486E-1,-1.145925E-1,1.2671854E-1,2.3311323E-1,-1.8303514E-1],"split_indices":[13,9,1,2,4,2,0,5,3,14,6,16,1,4,1,16,2,1,1,7,2,0,5,0,0,14,8,0,0,14,0,2,16,2,0,0,0,5,2,2,0,0,0,0,0,0,0,0,0,0,0,0,0,0,0,0,0,0,0,0,0,0,0],"split_type":[0,0,0,0,0,0,0,0,0,0,0,0,0,0,0,0,0,0,0,0,0,0,0,0,0,0,0,0,0,0,0,0,0,0,0,0,0,0,0,0,0,0,0,0,0,0,0,0,0,0,0,0,0,0,0,0,0,0,0,0,0,0,0],"sum_hessian":[3.6108075E2,3.2472653E2,3.635424E1,2.5689798E2,6.782855E1,3.4390224E1,1.9640176E0,8.110628E1,1.7579169E2,1.0582306E1,5.7246246E1,7.411868E0,2.6978355E1,6.673132E1,1.4374956E1,1.3503748E2,4.0754204E1,7.4791336E0,3.1031723E0,4.434671E1,1.2899536E1,1.6904246E0,5.7214437E0,1.6811442E0,2.529721E1,2.1076168E1,4.5655155E1,1.276352E1,1.6114357E0,1.665062E1,1.1838686E2,1.8100456E1,2.2653746E1,5.565445E0,1.9136887E0,2.0160072E0,1.087165E0,4.1128696E1,3.2180126E0,7.7643147E0,5.1352215E0,4.0991535E0,1.6222899E0,1.5674329E1,5.4018397E0,3.9741787E1,5.9133687E0,1.3218385E1,3.4322345E0,1.1426614E2,4.12072E0,1.4390398E1,3.710059E0,1.6506577E1,6.1471686E0,2.8273795E0,2.7380657E0,3.4878098E1,6.2506013E0,1.4781795E0,1.7398331E0,1.7500947E0,6.01422E0],"tree_param":{"num_deleted":"0","num_feature":"18","num_nodes":"63","size_leaf_vector":"1"}},{"base_weights":[9.443351E-3,8.432516E-2,-7.1118957E-1,4.9346998E-1,-2.534386E-2,-3.7847108E-1,-8.9587146E-1,3.351583E-1,9.073663E-1,1.035592E-1,-4.715591E-1,1.6207227E-1,-7.0381194E-1,-2.8281945E-1,-1.6802385E-2,-9.787884E-2,6.0518783E-1,1.13173366E-1,2.8709915E-1,-3.7549415E-1,2.0812961E-1,7.154341E-1,-7.9839087E-1,-1.7898884E-1,4.884854E-1,-2.0902528E-1,-2.6275688E-1,1.04187846E-1,-8.1271565E-1,7.0423543E-1,6.1947063E-2,-1.251749E-1,-7.531578E-1,3.297236E-1,-1.7898372E-1,8.953474E-1,-8.700102E-2,-9.644464E-1,6.070949E-1,-3.1650893E-2,2.8542417E-1,6.885663E-2,-1.7945063E-1,-6.41936E-2,1.8864952E-1,-3.9686605E-1,1.2358319E-2,3.4319486E-2,2.4534877E-1,-6.60729E-2,1.7396456E-1,-6.975176E-2,2.1553859E-1,-2.81968E-1,-1.3838063E-2,1.2866649E-2,1.9033006E-1,1.6889307E-1,-1.316513E-1,1.6033055E-1,3.3559424E-1,-3.3755946E-1,-1.5354255E-1,4.151252E-1,-1.14903845E-1],"categories":[],"categories_nodes":[],"categories_segments":[],"categories_sizes":[],"default_left":[0,0,0,0,0,0,0,0,0,0,0,0,0,0,0,0,0,0,0,0,0,0,0,0,0,0,0,0,0,0,0,0,0,0,0,0,0,0,0,0,0,0,0,0,0,0,0,0,0,0,0,0,0,0,0,0,0,0,0,0,0,0,0,0,0],"id":12,"left_children":[1,3,5,7,9,11,13,15,17,19,21,23,25,-1,-1,27,29,-1,-1,31,33,35,37,-1,39,41,-1,43,45,47,49,51,53,55,57,59,-1,61,63,-1,-1,-1,-1,-1,-1,-1,-1,-1,-1,-1,-1,-1,-1,-1,-1,-1,-1,-1,-1,-1,-1,-1,-1,-1,-1],"loss_changes":[1.7749918E1,1.3377491E1,1.5635691E0,3.8246632E0,1.3614327E1,2.3622293E0,7.0204735E-1,5.574211E0,8.2240105E-2,9.285818E0,2.1148258E1,1.6822717E0,5.12197E-1,0E0,0E0,2.8255281E0,1.5269127E0,0E0,0E0,3.0528169E0,7.1909294E0,2.4265232E0,1.0402323E1,0E0,1.3313124E0,7.2106886E-1,0E0,2.7518845E0,1.9257243E0,1.5540771E0,9.4584155E-1,2.0884368E0,1.6822796E0,1.0080848E1,7.3545065E0,2.4073887E-1,0E0,2.1893692E0,4.419571E0,0E0,0E0,0E0,0E0,0E0,0E0,0E0,0E0,0E0,0E0,0E0,0E0,0E0,0E0,0E0,0E0,0E0,0E0,0E0,0E0,0E0,0E0,0E0,0E0,0E0,0E0],"parents":[2147483647,0,0,1,1,2,2,3,3,4,4,5,5,6,6,7,7,8,8,9,9,10,10,11,11,12,12,15,15,16,16,19,19,20,20,21,21,22,22,24,24,25,25,27,27,28,28,29,29,30,30,31,31,32,32,33,33,34,34,35,35,37,37,38,38],"right_children":[2,4,6,8,10,12,14,16,18,20,22,24,26,-1,-1,28,30,-1,-1,32,34,36,38,-1,40,42,-1,44,46,48,50,52,54,56,58,60,-1,62,64,-1,-1,-1,-1,-1,-1,-1,-1,-1,-1,-1,-1,-1,-1,-1,-1,-1,-1,-1,-1,-1,-1,-1,-1,-1,-1],"split_conditions":[1E0,0E0,1.5E-1,8.57143E-1,1E0,1E0,8.33333E-1,8.88889E-1,0E0,1E0,6.4516E-2,1E0,1E0,-2.8281945E-1,-1.6802385E-2,1E0,1E0,1.13173366E-1,2.8709915E-1,3.61E-3,1E0,2.5316E-2,5E-1,-1.7898884E-1,1.92308E-1,4.82759E-1,-2.6275688E-1,7.4074E-2,1E0,1E0,1E0,1E0,9.34211E-1,1.5E-1,1.1236E-2,1E0,-8.700102E-2,1E0,5.18987E-1,-3.1650893E-2,2.8542417E-1,6.885663E-2,-1.7945063E-1,-6.41936E-2,1.8864952E-1,-3.9686605E-1,1.2358319E-2,3.4319486E-2,2.4534877E-1,-6.60729E-2,1.7396456E-1,-6.975176E-2,2.1553859E-1,-2.81968E-1,-1.3838063E-2,1.2866649E-2,1.9033006E-1,1.6889307E-1,-1.316513E-1,1.6033055E-1,3.3559424E-1,-3.3755946E-1,-1.5354255E-1,4.151252E-1,-1.14903845E-1],"split_indices":[13,17,2,8,14,16,1,1,16,4,2,4,17,0,0,5,5,0,0,1,5,1,1,0,1,1,0,8,7,4,3,0,2,2,2,4,0,3,1,0,0,0,0,0,0,0,0,0,0,0,0,0,0,0,0,0,0,0,0,0,0,0,0,0,0],"split_type":[0,0,0,0,0,0,0,0,0,0,0,0,0,0,0,0,0,0,0,0,0,0,0,0,0,0,0,0,0,0,0,0,0,0,0,0,0,0,0,0,0,0,0,0,0,0,0,0,0,0,0,0,0,0,0,0,0,0,0,0,0,0,0,0,0],"sum_hessian":[3.268205E2,2.9685675E2,2.9963749E1,6.2011044E1,2.348457E2,1.1783749E1,1.818E1,4.6163628E1,1.5847417E1,1.8280481E2,5.20409E1,4.616094E0,7.167654E0,1.7103247E1,1.0767531E0,1.7975101E1,2.8188526E1,2.0929556E0,1.3754461E1,3.2289726E1,1.5051508E2,1.0978824E1,4.1062077E1,1.1395452E0,3.4765491E0,2.420739E0,4.7469153E0,1.4679749E1,3.2953525E0,2.3590902E1,4.5976243E0,2.021949E1,1.2070235E1,1.1465096E2,3.5864117E1,9.405326E0,1.5734982E0,3.700393E1,4.0581465E0,1.8609023E0,1.6156467E0,1.3309753E0,1.0897636E0,9.506652E0,5.1730967E0,1.719075E0,1.5762775E0,4.133699E0,1.9457203E1,3.3481793E0,1.2494451E0,1.858006E1,1.6394316E0,9.287849E0,2.7823865E0,5.964534E1,5.5005623E1,8.999976E0,2.6864141E1,4.891963E0,4.5133624E0,2.6209803E1,1.0794127E1,2.0514119E0,2.0067346E0],"tree_param":{"num_deleted":"0","num_feature":"18","num_nodes":"65","size_leaf_vector":"1"}},{"base_weights":[5.183565E-3,-6.472783E-2,5.985285E-1,-1.08279474E-1,8.5865784E-1,8.251451E-1,-4.0622123E-2,2.728229E-2,-4.997479E-1,7.390927E-2,2.7768087E-1,8.990046E-1,2.535434E-1,1.5688147E-1,-2.4698482E-1,-5.965588E-2,4.1185084E-1,-7.721559E-1,-2.4489138E-2,1.08028844E-1,9.295296E-1,-5.226675E-2,1.9468972E-1,-8.140879E-2,1.7523424E-1,-1.2089313E-1,3.82182E-1,6.376347E-2,6.6207725E-1,-8.763432E-1,-2.4342003E-1,-3.0911958E-1,6.8088186E-1,3.0590463E-1,1.6802695E-1,1.3664751E-1,-2.8291675E-1,4.0294994E-2,-9.005204E-2,3.170245E-1,-1.0645502E-1,2.1786036E-1,-1.5097207E-1,-5.28041E-2,2.534228E-1,-2.8293744E-1,-1.1428002E-1,-1.3603513E-1,1.2571238E-1,-1.446049E-1,2.3673491E-1,2.4257775E-1,4.0243166E-3,-1.5016004E-1,5.5390533E-2],"categories":[],"categories_nodes":[],"categories_segments":[],"categories_sizes":[],"default_left":[0,0,0,0,0,0,0,0,0,0,0,0,0,0,0,0,0,0,0,0,0,0,0,0,0,0,0,0,0,0,0,0,0,0,0,0,0,0,0,0,0,0,0,0,0,0,0,0,0,0,0,0,0,0,0],"id":13,"left_children":[1,3,5,7,9,11,13,15,17,-1,-1,19,21,23,-1,25,27,29,31,-1,33,-1,-1,35,-1,37,39,41,43,45,47,49,51,-1,-1,-1,53,-1,-1,-1,-1,-1,-1,-1,-1,-1,-1,-1,-1,-1,-1,-1,-1,-1,-1],"loss_changes":[1.26245775E1,1.10446825E1,4.679865E0,1.3861835E1,2.7933598E-1,7.738571E-1,1.5744263E0,6.536718E0,8.677618E0,0E0,0E0,4.4956207E-3,8.0793995E-1,8.931186E-1,0E0,4.368215E0,3.096929E0,2.137064E0,5.3314977E0,0E0,5.7806015E-2,0E0,0E0,8.00674E-1,0E0,6.4940767E0,1.0161672E1,6.4425035E0,3.342309E0,8.072243E-1,1.3598801E0,3.9617784E0,6.408851E-1,0E0,0E0,0E0,6.145658E-1,0E0,0E0,0E0,0E0,0E0,0E0,0E0,0E0,0E0,0E0,0E0,0E0,0E0,0E0,0E0,0E0,0E0,0E0],"parents":[2147483647,0,0,1,1,2,2,3,3,4,4,5,5,6,6,7,7,8,8,11,11,12,12,13,13,15,15,16,16,17,17,18,18,20,20,23,23,25,25,26,26,27,27,28,28,29,29,30,30,31,31,32,32,36,36],"right_children":[2,4,6,8,10,12,14,16,18,-1,-1,20,22,24,-1,26,28,30,32,-1,34,-1,-1,36,-1,38,40,42,44,46,48,50,52,-1,-1,-1,54,-1,-1,-1,-1,-1,-1,-1,-1,-1,-1,-1,-1,-1,-1,-1,-1,-1,-1],"split_conditions":[1E0,8.57143E-1,1E0,1.802E-3,0E0,1E0,8.125E-1,1E0,7.6923E-2,7.390927E-2,2.7768087E-1,1E0,1E0,1E0,-2.4698482E-1,1E0,9.18919E-1,1E0,3.75E-1,1.08028844E-1,1E0,-5.226675E-2,1.9468972E-1,1.1236E-2,1.7523424E-1,1.1236E-2,6.72414E-1,2.30769E-1,1E0,5.5944E-2,1E0,1E0,1E0,3.0590463E-1,1.6802695E-1,1.3664751E-1,3.2E-1,4.0294994E-2,-9.005204E-2,3.170245E-1,-1.0645502E-1,2.1786036E-1,-1.5097207E-1,-5.28041E-2,2.534228E-1,-2.8293744E-1,-1.1428002E-1,-1.3603513E-1,1.2571238E-1,-1.446049E-1,2.3673491E-1,2.4257775E-1,4.0243166E-3,-1.5016004E-1,5.5390533E-2],"split_indices":[0,8,5,8,16,14,2,9,8,0,0,4,9,7,0,3,2,2,1,0,16,0,0,2,0,2,2,2,4,8,7,6,5,0,0,0,2,0,0,0,0,0,0,0,0,0,0,0,0,0,0,0,0,0,0],"split_type":[0,0,0,0,0,0,0,0,0,0,0,0,0,0,0,0,0,0,0,0,0,0,0,0,0,0,0,0,0,0,0,0,0,0,0,0,0,0,0,0,0,0,0,0,0,0,0,0,0,0,0,0,0,0,0],"sum_hessian":[3.0240787E2,2.7132916E2,3.1078691E1,2.5995126E2,1.137791E1,2.2728937E1,8.349752E0,1.9377808E2,6.617319E1,1.5826596E0,9.79525E0,1.962085E1,3.1080878E0,7.3057165E0,1.0440363E0,1.5873764E2,3.5040432E1,4.1666275E1,2.450691E1,1.7377768E0,1.7883074E1,1.7616956E0,1.3463922E0,5.2095346E0,2.0961819E0,1.4005313E2,1.868451E1,1.51793785E1,1.9861053E1,3.425826E1,7.408014E0,1.7861301E1,6.645608E0,1.296035E1,4.922724E0,1.0776948E0,4.1318398E0,5.7892544E1,8.216059E1,9.529174E0,9.155335E0,6.871061E0,8.308318E0,3.5606732E0,1.630038E1,2.9392414E1,4.865846E0,5.8642774E0,1.5437362E0,1.5916625E1,1.9446765E0,5.4008055E0,1.2448025E0,2.7713876E0,1.360452E0],"tree_param":{"num_deleted":"0","num_feature":"18","num_nodes":"55","size_leaf_vector":"1"}},{"base_weights":[1.0149101E-2,6.701816E-2,-6.130956E-1,9.019593E-3,5.3764683E-1,-2.547836E-1,-7.943578E-1,-2.3807064E-2,2.6764607E-1,7.342912E-1,1.9077627E-2,4.2812547E-1,-6.214228E-1,-2.6500303E-1,3.433274E-2,6.451688E-2,-3.2496998E-1,4.6930727E-2,7.864497E-1,1.9292131E-1,-1.9835426E-1,-8.110155E-3,2.3941256E-1,-1.8845206E-1,-2.4187176E-1,-1.9903816E-2,4.431973E-1,-6.450604E-1,1.2519129E-1,9.677212E-1,5.245807E-1,-1.1591809E-2,1.6596231E-1,6.117731E-2,-1.610964E-1,-2.7215956E-2,2.625069E-1,2.1282358E-1,-7.7232933E-3,-2.3391713E-1,-4.1120008E-2,-1.2011535E-1,1.1981055E-1,1.1684017E-1,3.360284E-1,-1.801529E-1,2.1669056E-1,7.054477E-2,-9.707333E-2],"categories":[],"categories_nodes":[],"categories_segments":[],"categories_sizes":[],"default_left":[0,0,0,0,0,0,0,0,0,0,0,0,0,0,0,0,0,0,0,0,0,0,0,0,0,0,0,0,0,0,0,0,0,0,0,0,0,0,0,0,0,0,0,0,0,0,0,0,0],"id":14,"left_children":[1,3,5,7,9,11,13,15,-1,17,19,21,23,-1,-1,25,27,-1,29,31,-1,-1,-1,33,-1,35,37,39,41,43,45,47,-1,-1,-1,-1,-1,-1,-1,-1,-1,-1,-1,-1,-1,-1,-1,-1,-1],"loss_changes":[1.0051486E1,7.084386E0,1.3378506E0,6.753981E0,2.8900118E0,2.629356E0,1.3364611E0,6.0030637E0,0E0,4.9850464E-1,1.1749245E0,6.7642945E-1,3.7215257E-1,0E0,0E0,5.5945888E0,7.4531465E0,0E0,3.7841606E-1,5.832089E-1,0E0,0E0,0E0,5.5593234E-1,0E0,9.1947975E0,3.9999804E0,1.9497967E0,3.3444784E0,4.3135643E-1,2.6180952E0,5.358891E-1,0E0,0E0,0E0,0E0,0E0,0E0,0E0,0E0,0E0,0E0,0E0,0E0,0E0,0E0,0E0,0E0,0E0],"parents":[2147483647,0,0,1,1,2,2,3,3,4,4,5,5,6,6,7,7,9,9,10,10,11,11,12,12,15,15,16,16,18,18,19,19,23,23,25,25,26,26,27,27,28,28,29,29,30,30,31,31],"right_children":[2,4,6,8,10,12,14,16,-1,18,20,22,24,-1,-1,26,28,-1,30,32,-1,-1,-1,34,-1,36,38,40,42,44,46,48,-1,-1,-1,-1,-1,-1,-1,-1,-1,-1,-1,-1,-1,-1,-1,-1,-1],"split_conditions":[1E0,1E0,1.06383E-1,9.33333E-1,1E0,1E0,8.33333E-1,1.802E-3,2.6764607E-1,1E0,8.125E-1,1.92308E-1,1E0,-2.6500303E-1,3.433274E-2,8.57143E-1,7.6923E-2,4.6930727E-2,9.1803E-2,1E0,-1.9835426E-1,-8.110155E-3,2.3941256E-1,4.82759E-1,-2.4187176E-1,1E0,1E0,1E0,4.0404E-2,3.5714E-2,1.69355E-1,3.61E-3,1.6596231E-1,6.117731E-2,-1.610964E-1,-2.7215956E-2,2.625069E-1,2.1282358E-1,-7.7232933E-3,-2.3391713E-1,-4.1120008E-2,-1.2011535E-1,1.1981055E-1,1.1684017E-1,3.360284E-1,-1.801529E-1,2.1669056E-1,7.054477E-2,-9.707333E-2],"split_indices":[13,0,2,8,5,16,1,8,0,4,2,1,17,0,0,2,8,0,1,7,0,0,0,1,0,3,3,2,1,2,1,1,0,0,0,0,0,0,0,0,0,0,0,0,0,0,0,0,0],"split_type":[0,0,0,0,0,0,0,0,0,0,0,0,0,0,0,0,0,0,0,0,0,0,0,0,0,0,0,0,0,0,0,0,0,0,0,0,0,0,0,0,0,0,0,0,0,0,0,0,0],"sum_hessian":[2.8143387E2,2.5871906E2,2.2714806E1,2.3124092E2,2.7478127E1,8.438842E0,1.4275963E1,2.2389177E2,7.3491583E0,1.9621532E1,7.856593E0,2.8893614E0,5.549481E0,1.3028302E1,1.2476609E0,1.7372742E2,5.0164356E1,1.9555484E0,1.7665985E1,6.8280487E0,1.0285443E0,1.7110001E0,1.1783612E0,2.2643776E0,3.2851033E0,1.4283263E2,3.089479E1,2.906472E1,2.1099636E1,8.846676E0,8.819308E0,4.9729996E0,1.8550494E0,1.2603765E0,1.0040013E0,1.3319171E2,9.640903E0,1.9380075E1,1.1514716E1,2.2551632E1,6.51309E0,7.075725E0,1.40239105E1,2.586597E0,6.2600784E0,1.0137312E0,7.8055773E0,2.9143798E0,2.0586195E0],"tree_param":{"num_deleted":"0","num_feature":"18","num_nodes":"49","size_leaf_vector":"1"}},{"base_weights":[9.169704E-3,-3.5302106E-1,9.2294805E-2,-9.4060585E-2,-6.393476E-1,2.0808192E-1,-2.0286219E-1,-1.8558022E-1,2.708796E-1,-7.768093E-1,9.498392E-3,6.886148E-2,5.123522E-1,8.776511E-2,-6.7199045E-1,-3.8628332E-2,-5.572247E-1,-8.337466E-1,5.9333607E-3,2.948758E-1,-1.3017944E-1,2.1195757E-1,-4.345131E-1,7.4059474E-1,-2.0136206E-1,3.7467033E-1,-2.8342643E-1,-1.891577E-1,-1.1037986E0,-1.9941583E-1,1.185484E-1,-2.6739594E-1,8.403732E-2,-2.7398807E-1,-3.523711E-1,2.0343138E-1,-6.279156E-2,1.4040487E-1,8.142311E-1,-5.5563986E-1,2.1148384E-1,3.9570686E-1,1.119532E0,-4.9363816E-1,2.3787239E-1,1.0841401E-2,9.434117E-1,-4.4151026E-1,2.0268328E-1,5.9956133E-1,-4.7306272E-1,-1.2505325E0,-3.416474E-2,-1.0525955E-1,1.9398664E-1,1.268167E-1,-2.1783671E-1,-5.9818126E-2,1.0885311E-1,-2.997754E-1,-7.083132E-2,1.6262749E-1,-1.9717605E-1,4.053553E-1,-8.068975E-4,-2.0772974E-1,1.8732892E-1,1.960329E-1,-2.007804E-1,3.4438875E-1,-6.460206E-2,-1.7995895E-1,1.7193888E-1,2.1874397E-1,3.6747053E-2,6.793977E-2,-2.2060335E-1,-7.3982835E-2,-4.005668E-1],"categories":[],"categories_nodes":[],"categories_segments":[],"categories_sizes":[],"default_left":[0,0,0,0,0,0,0,0,0,0,0,0,0,0,0,0,0,0,0,0,0,0,0,0,0,0,0,0,0,0,0,0,0,0,0,0,0,0,0,0,0,0,0,0,0,0,0,0,0,0,0,0,0,0,0,0,0,0,0,0,0,0,0,0,0,0,0,0,0,0,0,0,0,0,0,0,0,0,0],"id":15,"left_children":[1,3,5,7,9,11,13,15,-1,17,19,21,23,25,27,29,31,33,-1,35,-1,37,39,41,43,45,47,49,51,53,-1,-1,-1,-1,55,-1,-1,57,-1,59,-1,61,63,65,-1,67,69,71,-1,73,75,77,-1,-1,-1,-1,-1,-1,-1,-1,-1,-1,-1,-1,-1,-1,-1,-1,-1,-1,-1,-1,-1,-1,-1,-1,-1,-1,-1],"loss_changes":[8.148586E0,3.686287E0,7.562294E0,2.6953814E0,2.1321878E0,6.680501E0,8.581089E0,1.4095786E0,0E0,9.0865135E-1,7.7999616E-1,8.010117E0,8.231083E0,4.3106856E0,4.8003426E0,1.4635226E0,2.3061E0,3.8203907E-1,0E0,8.6271244E-1,0E0,1.5063489E1,3.795216E0,4.4977856E0,4.1133723E0,4.686732E0,2.9940524E0,3.093726E0,1.6697998E0,2.1679535E0,0E0,0E0,0E0,0E0,1.5337781E0,0E0,0E0,6.491105E0,0E0,3.0029807E0,0E0,3.645348E0,4.5443726E0,2.7693734E0,0E0,6.929493E0,2.3434439E0,2.8936002E0,0E0,1.432997E-1,1.9621522E0,5.860176E-1,0E0,0E0,0E0,0E0,0E0,0E0,0E0,0E0,0E0,0E0,0E0,0E0,0E0,0E0,0E0,0E0,0E0,0E0,0E0,0E0,0E0,0E0,0E0,0E0,0E0,0E0,0E0],"parents":[2147483647,0,0,1,1,2,2,3,3,4,4,5,5,6,6,7,7,9,9,10,10,11,11,12,12,13,13,14,14,15,15,16,16,17,17,19,19,21,21,22,22,23,23,24,24,25,25,26,26,27,27,28,28,29,29,34,34,37,37,39,39,41,41,42,42,43,43,45,45,46,46,47,47,49,49,50,50,51,51],"right_children":[2,4,6,8,10,12,14,16,-1,18,20,22,24,26,28,30,32,34,-1,36,-1,38,40,42,44,46,48,50,52,54,-1,-1,-1,-1,56,-1,-1,58,-1,60,-1,62,64,66,-1,68,70,72,-1,74,76,78,-1,-1,-1,-1,-1,-1,-1,-1,-1,-1,-1,-1,-1,-1,-1,-1,-1,-1,-1,-1,-1,-1,-1,-1,-1,-1,-1],"split_conditions":[1E0,3.61E-3,1E0,1E0,9.11111E-1,2E-1,3.42857E-1,6.4516E-2,2.708796E-1,1.66667E-1,1E0,4.0816E-2,1E0,3.61E-3,0E0,1E0,1E0,1E0,5.9333607E-3,1E0,-1.3017944E-1,4.0404E-2,1.44172E-1,6.25E-1,1E0,1.92308E-1,4.54545E-1,0E0,1.63265E-1,1E0,1.185484E-1,-2.6739594E-1,8.403732E-2,-2.7398807E-1,4.5455E-2,2.0343138E-1,-6.279156E-2,1E0,8.142311E-1,9.0909E-2,2.1148384E-1,3.42857E-1,1.2085E-2,7.5E-2,2.3787239E-1,1.1236E-2,1E0,1E0,2.0268328E-1,9.33333E-1,3.61E-3,4.0625E-1,-3.416474E-2,-1.0525955E-1,1.9398664E-1,1.268167E-1,-2.1783671E-1,-5.9818126E-2,1.0885311E-1,-2.997754E-1,-7.083132E-2,1.6262749E-1,-1.9717605E-1,4.053553E-1,-8.068975E-4,-2.0772974E-1,1.8732892E-1,1.960329E-1,-2.007804E-1,3.4438875E-1,-6.460206E-2,-1.7995895E-1,1.7193888E-1,2.1874397E-1,3.6747053E-2,6.793977E-2,-2.2060335E-1,-7.3982835E-2,-4.005668E-1],"split_indices":[4,1,5,5,1,1,2,2,0,8,16,1,6,1,16,14,3,2,0,14,0,1,8,2,1,2,8,17,8,9,0,0,0,0,1,0,0,16,0,1,0,2,8,8,0,2,0,3,0,1,1,2,0,0,0,0,0,0,0,0,0,0,0,0,0,0,0,0,0,0,0,0,0,0,0,0,0,0,0],"split_type":[0,0,0,0,0,0,0,0,0,0,0,0,0,0,0,0,0,0,0,0,0,0,0,0,0,0,0,0,0,0,0,0,0,0,0,0,0,0,0,0,0,0,0,0,0,0,0,0,0,0,0,0,0,0,0,0,0,0,0,0,0,0,0,0,0,0,0,0,0,0,0,0,0,0,0,0,0,0,0],"sum_hessian":[2.685707E2,4.9526802E1,2.190439E2,2.6703783E1,2.2823019E1,1.5753825E2,6.1505646E1,2.5204023E1,1.4997613E0,1.867038E1,4.152641E0,1.08925255E2,4.861299E1,3.8480007E1,2.3025639E1,1.8853214E1,6.3508077E0,1.7381369E1,1.2890093E0,2.7304325E0,1.4222085E0,8.5265465E1,2.365979E1,3.6805195E1,1.1807795E1,2.1698898E1,1.6781109E1,1.1549479E1,1.147616E1,1.4149053E1,4.7041626E0,4.4934897E0,1.857318E0,1.4146425E1,3.234944E0,1.3553025E0,1.3751299E0,8.392171E1,1.3437563E0,2.184951E1,1.8102808E0,2.0338482E1,1.6466715E1,9.5144415E0,2.293353E0,1.3854874E1,7.8440247E0,1.4869682E1,1.9114262E0,2.762663E0,8.786816E0,9.765381E0,1.7107795E0,1.24972105E1,1.6518422E0,1.0097911E0,2.225153E0,3.3243057E1,5.067865E1,8.257884E0,1.3591626E1,1.8282047E1,2.0564344E0,1.3480088E1,2.9866257E0,8.401356E0,1.1130866E0,7.144037E0,6.7108364E0,6.675017E0,1.1690078E0,1.3215895E1,1.6537879E0,1.7570267E0,1.0056363E0,2.4333665E0,6.3534493E0,1.0640421E0,8.701339E0],"tree_param":{"num_deleted":"0","num_feature":"18","num_nodes":"79","size_leaf_vector":"1"}},{"base_weights":[1.0068953E-2,-1.6517226E-2,7.7644795E-1,5.8701616E-2,-2.8109255E-1,3.6145512E-2,2.6187322E-1,-1.09031454E-1,2.2661209E-1,3.8641742E-1,-6.553779E-1,1.3262098E-1,-6.740451E-1,-3.4364095E-1,3.1172544E-1,1.5898423E-1,3.271554E-1,-7.935974E-1,4.935637E-1,-1.6943343E-1,2.404613E-1,-9.046603E-1,2.9800853E-1,-5.5992913E-1,1.7404053E-1,7.076604E-1,1.9401352E-1,5.4504883E-1,-5.578268E-1,-4.0500158E-1,-9.654101E-1,2.6356214E-1,2.4142092E-2,-7.2560688E-3,-1.7824236E-1,3.8304016E-2,1.6751274E-1,-3.0632088E-1,4.552904E-2,-1.0385048E-2,-1.9166388E-1,2.6255497E-1,-4.9243953E-2,1.5198502E-1,-2.6301946E-2,7.195582E-2,3.3476642E-1,1.8927306E-1,-2.8395563E-1,-1.5691526E-1,1.15914784E-1,-3.3049572E-1,-1.3891727E-1],"categories":[],"categories_nodes":[],"categories_segments":[],"categories_sizes":[],"default_left":[0,0,0,0,0,0,0,0,0,0,0,0,0,0,0,0,0,0,0,0,0,0,0,0,0,0,0,0,0,0,0,0,0,0,0,0,0,0,0,0,0,0,0,0,0,0,0,0,0,0,0,0,0],"id":16,"left_children":[1,3,5,7,9,-1,-1,11,13,15,17,19,21,23,25,27,-1,29,31,33,35,37,-1,39,-1,41,43,45,47,49,51,-1,-1,-1,-1,-1,-1,-1,-1,-1,-1,-1,-1,-1,-1,-1,-1,-1,-1,-1,-1,-1,-1],"loss_changes":[5.1015983E0,4.839722E0,4.2599678E-1,5.362858E0,1.3700354E1,0E0,0E0,1.3127824E1,4.720158E0,3.0239074E0,5.927191E0,2.2467072E0,1.1962113E1,2.886106E0,3.741475E0,4.8043237E0,0E0,1.7119503E0,6.2260807E-1,1.1209177E0,1.7328649E0,3.327654E0,0E0,4.2977834E-1,0E0,2.8739738E0,5.8146973E0,1.6618593E0,3.4557848E0,1.2651786E0,9.3522835E-1,0E0,0E0,0E0,0E0,0E0,0E0,0E0,0E0,0E0,0E0,0E0,0E0,0E0,0E0,0E0,0E0,0E0,0E0,0E0,0E0,0E0,0E0],"parents":[2147483647,0,0,1,1,2,2,3,3,4,4,7,7,8,8,9,9,10,10,11,11,12,12,13,13,14,14,15,15,17,17,18,18,19,19,20,20,21,21,23,23,25,25,26,26,27,27,28,28,29,29,30,30],"right_children":[2,4,6,8,10,-1,-1,12,14,16,18,20,22,24,26,28,-1,30,32,34,36,38,-1,40,-1,42,44,46,48,50,52,-1,-1,-1,-1,-1,-1,-1,-1,-1,-1,-1,-1,-1,-1,-1,-1,-1,-1,-1,-1,-1,-1],"split_conditions":[8.57143E-1,1E0,0E0,1.53846E-1,2.05128E-1,3.6145512E-2,2.6187322E-1,3.0303E-2,1E0,1E0,1E0,1E0,1E0,1E0,2.05128E-1,6.4516E-2,3.271554E-1,0E0,9.52381E-1,3.61E-3,1.96581E-1,1E0,2.9800853E-1,0E0,1.7404053E-1,4.0816E-2,0E0,6.25E-2,0E0,2.5E-1,5E-1,2.6356214E-1,2.4142092E-2,-7.2560688E-3,-1.7824236E-1,3.8304016E-2,1.6751274E-1,-3.0632088E-1,4.552904E-2,-1.0385048E-2,-1.9166388E-1,2.6255497E-1,-4.9243953E-2,1.5198502E-1,-2.6301946E-2,7.195582E-2,3.3476642E-1,1.8927306E-1,-2.8395563E-1,-1.5691526E-1,1.15914784E-1,-3.3049572E-1,-1.3891727E-1],"split_indices":[8,14,16,2,2,0,0,2,4,3,1,4,3,6,2,2,0,16,2,1,1,0,0,17,0,1,16,2,17,8,1,0,0,0,0,0,0,0,0,0,0,0,0,0,0,0,0,0,0,0,0,0,0],"split_type":[0,0,0,0,0,0,0,0,0,0,0,0,0,0,0,0,0,0,0,0,0,0,0,0,0,0,0,0,0,0,0,0,0,0,0,0,0,0,0,0,0,0,0,0,0,0,0,0,0,0,0,0,0],"sum_hessian":[2.4875465E2,2.4136015E2,7.3944907E0,1.8853712E2,5.2823032E1,1.236322E0,6.158169E0,9.449381E1,9.404331E1,1.8966064E1,3.3856968E1,6.672239E1,2.7771425E1,1.1819058E1,8.222426E1,1.5262035E1,3.7040284E0,3.0497368E1,3.3596008E0,1.7403908E1,4.9318478E1,2.479898E1,2.9724457E0,9.895943E0,1.9231162E0,1.76947E1,6.452956E1,1.0075258E1,5.186777E0,1.0379303E1,2.0118065E1,1.1557522E0,2.2038486E0,1.3756312E1,3.6475956E0,3.7438618E1,1.187986E1,2.2367708E1,2.431272E0,1.4809048E0,8.415037E0,1.4839357E1,2.8553426E0,3.0207794E1,3.4321762E1,7.490616E0,2.5846426E0,1.1245137E0,4.062263E0,9.32707E0,1.0522326E0,1.488747E1,5.230594E0],"tree_param":{"num_deleted":"0","num_feature":"18","num_nodes":"53","size_leaf_vector":"1"}},{"base_weights":[1.0798746E-2,-2.8616562E-2,4.5530897E-1,3.57547E-2,-3.3990848E-1,2.7594572E-1,2.4957386E-1,1.6324843E-3,5.441529E-1,-4.3261883E-1,1.788291E-1,8.941978E-2,2.551592E-1,1.6911633E-2,-3.343543E-1,-6.366847E-2,8.080976E-1,-5.8867073E-1,-1.6684209E-1,-3.5254724E-2,2.1360114E-1,-2.7332507E-2,3.416971E-1,6.71833E-2,-1.00445166E-1,4.0469572E-2,2.7283385E-1,-7.791749E-1,-1.017005E-2,3.6300635E-1,-4.3638235E-1,4.022368E-1,-3.3895913E-1,-1.3480455E-2,2.1512075E-1,1.5972714E-1,-9.4549336E-2,-1.126679E-1,-2.610265E-1,-1.0305792E-1,1.4084211E-1,3.3221346E-1,-9.131356E-2,-2.052195E-1,1.905565E-1,-5.054922E-2,1.8500713E-1,-1.9475043E-1,3.7744734E-2],"categories":[],"categories_nodes":[],"categories_segments":[],"categories_sizes":[],"default_left":[0,0,0,0,0,0,0,0,0,0,0,0,0,0,0,0,0,0,0,0,0,0,0,0,0,0,0,0,0,0,0,0,0,0,0,0,0,0,0,0,0,0,0,0,0,0,0,0,0],"id":17,"left_children":[1,3,5,7,9,11,-1,13,15,17,-1,19,-1,21,-1,23,25,27,29,31,-1,33,35,-1,-1,-1,-1,37,39,41,43,45,47,-1,-1,-1,-1,-1,-1,-1,-1,-1,-1,-1,-1,-1,-1,-1,-1],"loss_changes":[4.1286883E0,4.354709E0,1.0668323E0,3.1300805E0,3.4885864E0,1.4776275E0,0E0,2.9202898E0,1.8721251E0,1.3307638E0,0E0,9.6131593E-1,0E0,2.4352918E0,0E0,4.1523203E-1,4.2215967E-1,2.3408604E0,2.178033E0,1.598145E0,0E0,1.9912516E0,2.7128499E0,0E0,0E0,0E0,0E0,2.6105213E-1,1.1674687E0,2.9770458E0,3.042775E0,7.116483E-1,1.0961902E0,0E0,0E0,0E0,0E0,0E0,0E0,0E0,0E0,0E0,0E0,0E0,0E0,0E0,0E0,0E0,0E0],"parents":[2147483647,0,0,1,1,2,2,3,3,4,4,5,5,7,7,8,8,9,9,11,11,13,13,15,15,16,16,17,17,18,18,19,19,21,21,22,22,27,27,28,28,29,29,30,30,31,31,32,32],"right_children":[2,4,6,8,10,12,-1,14,16,18,-1,20,-1,22,-1,24,26,28,30,32,-1,34,36,-1,-1,-1,-1,38,40,42,44,46,48,-1,-1,-1,-1,-1,-1,-1,-1,-1,-1,-1,-1,-1,-1,-1,-1],"split_conditions":[1.66667E-1,1.802E-3,9.33333E-1,1E0,1E0,3.20988E-1,2.4957386E-1,9.75E-1,1E0,5.5556E-2,1.788291E-1,1E0,2.551592E-1,1E0,-3.343543E-1,9.52381E-1,7.9365E-2,1E0,2.05128E-1,1.29032E-1,2.1360114E-1,2E0,1E0,6.71833E-2,-1.00445166E-1,4.0469572E-2,2.7283385E-1,9.589E-2,1E0,8.1633E-2,8.33333E-1,1E0,8.3333E-2,-1.3480455E-2,2.1512075E-1,1.5972714E-1,-9.4549336E-2,-1.126679E-1,-2.610265E-1,-1.0305792E-1,1.4084211E-1,3.3221346E-1,-9.131356E-2,-2.052195E-1,1.905565E-1,-5.054922E-2,1.8500713E-1,-1.9475043E-1,3.7744734E-2],"split_indices":[8,8,8,1,0,1,0,1,4,8,0,0,0,9,0,2,2,2,2,2,0,0,14,0,0,0,0,2,5,8,1,4,1,0,0,0,0,0,0,0,0,0,0,0,0,0,0,0,0],"split_type":[0,0,0,0,0,0,0,0,0,0,0,0,0,0,0,0,0,0,0,0,0,0,0,0,0,0,0,0,0,0,0,0,0,0,0,0,0,0,0,0,0,0,0,0,0,0,0,0,0],"sum_hessian":[2.3390523E2,2.1571327E2,1.8191957E1,1.7948349E2,3.622979E1,1.3496681E1,4.6952763E0,1.6913486E2,1.0348631E1,3.345401E1,2.7757807E0,1.1061456E1,2.4352255E0,1.6782234E2,1.3125044E0,3.362992E0,6.9856386E0,2.0312521E1,1.3141488E1,1.0001913E1,1.0595425E0,1.4850763E2,1.9314718E1,1.7164307E0,1.6465613E0,1.2190752E0,5.7665634E0,1.5019585E1,5.2929373E0,4.314164E0,8.827324E0,3.9653385E0,6.0365744E0,1.4599503E2,2.5126047E0,1.5115279E1,4.1994386E0,3.7044451E0,1.131514E1,3.2900877E0,2.0028496E0,1.7277868E0,2.5863774E0,7.463773E0,1.3635513E0,1.1415579E0,2.8237805E0,3.382335E0,2.6542392E0],"tree_param":{"num_deleted":"0","num_feature":"18","num_nodes":"49","size_leaf_vector":"1"}},{"base_weights":[1.2487446E-2,4.7833618E-2,-4.5858857E-1,5.393176E-3,3.6692846E-1,-1.5655817E-1,-6.658508E-1,4.709628E-2,-4.6126464E-1,2.2355291E-1,9.0344733E-1,4.211373E-1,-5.247303E-1,-3.0805958E-2,-7.905367E-1,-1.568533E-2,2.6257032E-1,6.16944E-2,-6.3434064E-1,-4.0377155E-1,3.543823E-1,1.0724943E-1,3.522121E-1,2.645597E-2,1.7966737E-1,-2.1110173E-1,2.3573819E-3,-2.573296E-1,-6.459827E-2,6.6178694E-2,-3.9015976E-1,4.5819673E-1,1.4846371E-1,-2.918529E-1,1.9411838E-1,-7.759228E-1,1.0174499E-2,-1.9214396E-1,-8.0048125E-3,2.512427E-1,1.6388886E-1,3.7124664E-2,-1.3026817E-1,-1.414026E-1,2.2564353E-1,-2.2951578E-1,6.7036174E-2,8.8589236E-2,-2.0974076E-1,-3.516048E-2,-2.5720719E-1,1.262636E-1,-5.5268113E-2],"categories":[],"categories_nodes":[],"categories_segments":[],"categories_sizes":[],"default_left":[0,0,0,0,0,0,0,0,0,0,0,0,0,0,0,0,0,0,0,0,0,0,0,0,0,0,0,0,0,0,0,0,0,0,0,0,0,0,0,0,0,0,0,0,0,0,0,0,0,0,0,0,0],"id":18,"left_children":[1,3,5,7,9,11,13,15,17,19,21,23,25,-1,27,29,31,33,35,37,39,-1,-1,-1,-1,-1,-1,-1,-1,41,43,-1,45,47,-1,49,-1,-1,-1,-1,51,-1,-1,-1,-1,-1,-1,-1,-1,-1,-1,-1,-1],"loss_changes":[3.7962422E0,2.8657818E0,8.920541E-1,3.6787763E0,1.7090805E0,1.8766509E0,5.5999327E-1,2.349948E0,1.4428122E0,1.8611357E0,3.0566025E-1,1.5934426E-1,5.010638E-1,0E0,9.862375E-2,4.1713157E0,5.4278107E0,1.1755332E0,1.1371293E0,3.4706813E-1,1.5057392E0,0E0,0E0,0E0,0E0,0E0,0E0,0E0,0E0,3.2751725E0,2.6175919E0,0E0,2.7088408E0,1.0820625E0,0E0,4.2145348E-1,0E0,0E0,0E0,0E0,1.3342835E0,0E0,0E0,0E0,0E0,0E0,0E0,0E0,0E0,0E0,0E0,0E0,0E0],"parents":[2147483647,0,0,1,1,2,2,3,3,4,4,5,5,6,6,7,7,8,8,9,9,10,10,11,11,12,12,14,14,15,15,16,16,17,17,18,18,19,19,20,20,29,29,30,30,32,32,33,33,35,35,40,40],"right_children":[2,4,6,8,10,12,14,16,18,20,22,24,26,-1,28,30,32,34,36,38,40,-1,-1,-1,-1,-1,-1,-1,-1,42,44,-1,46,48,-1,50,-1,-1,-1,-1,52,-1,-1,-1,-1,-1,-1,-1,-1,-1,-1,-1,-1],"split_conditions":[1E0,7.6923E-2,1.06383E-1,1.2085E-2,1E0,1E0,0E0,2.5641E-1,3.61E-3,1E0,1E0,1.92308E-1,4.4186E-1,-3.0805958E-2,1E0,4.5455E-2,2.63158E-1,1E0,1E0,1.90476E-1,3.8462E-2,1.0724943E-1,3.522121E-1,2.645597E-2,1.7966737E-1,-2.1110173E-1,2.3573819E-3,-2.573296E-1,-6.459827E-2,6.52174E-1,1.0724E-2,4.5819673E-1,3.05556E-1,0E0,1.9411838E-1,1.7751E-2,1.0174499E-2,-1.9214396E-1,-8.0048125E-3,2.512427E-1,0E0,3.7124664E-2,-1.3026817E-1,-1.414026E-1,2.2564353E-1,-2.2951578E-1,6.7036174E-2,8.8589236E-2,-2.0974076E-1,-3.516048E-2,-2.5720719E-1,1.262636E-1,-5.5268113E-2],"split_indices":[13,8,2,8,6,16,17,1,1,4,3,1,1,0,6,1,1,14,9,8,2,0,0,0,0,0,0,0,0,2,8,0,1,16,0,8,0,0,0,0,17,0,0,0,0,0,0,0,0,0,0,0,0],"split_type":[0,0,0,0,0,0,0,0,0,0,0,0,0,0,0,0,0,0,0,0,0,0,0,0,0,0,0,0,0,0,0,0,0,0,0,0,0,0,0,0,0,0,0,0,0,0,0,0,0,0,0,0,0],"sum_hessian":[2.2567508E2,2.1075964E2,1.4915436E1,1.8691621E2,2.384344E1,6.7843647E0,8.131071E0,1.7240796E2,1.45082445E1,1.9933283E1,3.9101574E0,2.5847688E0,4.199596E0,1.8044659E0,6.3266053E0,1.3422632E2,3.8181652E1,3.7676415E0,1.07406025E1,3.07974E0,1.6853542E1,2.064991E0,1.8451664E0,1.4203774E0,1.1643915E0,2.9029982E0,1.2965975E0,5.2247314E0,1.1018738E0,1.1082261E2,2.3403704E1,2.1347826E0,3.6046867E1,2.6615493E0,1.106092E0,8.729898E0,2.0107045E0,1.4629337E0,1.6168065E0,3.8057559E0,1.3047786E1,1.0006333E2,1.0759279E1,2.2399197E1,1.0045079E0,2.0365057E0,3.4010365E1,1.2026843E0,1.4588652E0,1.2288641E0,7.501034E0,7.3861127E0,5.661673E0],"tree_param":{"num_deleted":"0","num_feature":"18","num_nodes":"53","size_leaf_vector":"1"}},{"base_weights":[8.135657E-3,-2.9617202E-2,3.513425E-1,-2.6621598E-1,2.5527537E-2,5.5211633E-1,-9.309939E-2,-3.12893E-1,2.0155527E-1,1.04320414E-1,-2.0409226E-1,6.780467E-1,1.7852102E-1,2.1666634E-1,-4.1400105E-1,-3.5820824E-1,2.5446078E-1,-3.3611814E-3,3.7475473E-1,4.1806325E-1,-3.628319E-1,7.946877E-1,3.115762E-1,2.075248E-1,-1.6484042E-1,-9.113111E-2,1.9318166E-1,-2.2280684E-2,-1.584428E-1,-1.9867194E-1,-6.242544E-1,-1.8732732E-2,1.4598252E-1,-8.558673E-2,8.7017715E-1,1.0248529E0,1.6591196E-1,2.2216024E-1,2.7018943E-1,-4.2575794E-1,1.8098156E-1,1.2707579E-1,2.9871017E-1,-4.0287822E-2,1.9306348E-1,6.9141574E-2,-1.3466333E-1,-8.1780896E-2,1.4532408E-1,-2.3433428E-1,-4.7646523E-2,-1.23308994E-1,3.0113334E-2,3.219555E-1,9.678324E-2,3.784242E-1,-2.3741404E-2,-1.03193775E-1,1.2708841E-1,-1.2183111E-2,2.0077945E-1,-2.808154E-4,-1.7801043E-1],"categories":[],"categories_nodes":[],"categories_segments":[],"categories_sizes":[],"default_left":[0,0,0,0,0,0,0,0,0,0,0,0,0,0,0,0,0,0,0,0,0,0,0,0,0,0,0,0,0,0,0,0,0,0,0,0,0,0,0,0,0,0,0,0,0,0,0,0,0,0,0,0,0,0,0,0,0,0,0,0,0,0,0],"id":19,"left_children":[1,3,5,7,9,11,13,15,-1,17,19,21,23,25,27,29,31,33,35,37,39,41,43,-1,-1,45,-1,-1,-1,47,49,-1,-1,51,53,55,57,59,-1,61,-1,-1,-1,-1,-1,-1,-1,-1,-1,-1,-1,-1,-1,-1,-1,-1,-1,-1,-1,-1,-1,-1,-1],"loss_changes":[2.8399189E0,2.5856729E0,1.9894125E0,1.8499372E0,2.937958E0,5.8958673E-1,8.465637E-1,1.0258431E0,0E0,3.5157216E0,4.252612E0,2.2000647E-1,2.30997E0,6.545261E-1,1.1911678E-1,1.3225508E0,2.7122265E-1,6.345513E0,4.4974484E0,6.4181674E-1,2.3006058E0,1.491437E-1,7.20832E-1,0E0,0E0,5.0723636E-1,0E0,0E0,0E0,1.2820961E0,7.746167E-1,0E0,0E0,4.9256945E0,4.9867535E-1,2.232356E0,3.7216651E0,9.273089E-1,0E0,2.288579E0,0E0,0E0,0E0,0E0,0E0,0E0,0E0,0E0,0E0,0E0,0E0,0E0,0E0,0E0,0E0,0E0,0E0,0E0,0E0,0E0,0E0,0E0,0E0],"parents":[2147483647,0,0,1,1,2,2,3,3,4,4,5,5,6,6,7,7,9,9,10,10,11,11,12,12,13,13,14,14,15,15,16,16,17,17,18,18,19,19,20,20,21,21,22,22,25,25,29,29,30,30,33,33,34,34,35,35,36,36,37,37,39,39],"right_children":[2,4,6,8,10,12,14,16,-1,18,20,22,24,26,28,30,32,34,36,38,40,42,44,-1,-1,46,-1,-1,-1,48,50,-1,-1,52,54,56,58,60,-1,62,-1,-1,-1,-1,-1,-1,-1,-1,-1,-1,-1,-1,-1,-1,-1,-1,-1,-1,-1,-1,-1,-1,-1],"split_conditions":[1E0,1E0,1E0,1E0,1E0,3.63636E-1,1.86047E-1,1E0,2.0155527E-1,5.80645E-1,1.1236E-2,9.1803E-2,0E0,1E0,0E0,4.5455E-2,1.75824E-1,1E0,7.05882E-1,9.434E-3,8.57143E-1,1.72414E-1,3.40909E-1,2.075248E-1,-1.6484042E-1,7.9365E-2,1.9318166E-1,-2.2280684E-2,-1.584428E-1,1E0,9.11111E-1,-1.8732732E-2,1.4598252E-1,1E0,1.26866E-1,5.18987E-1,1E-1,1E0,2.7018943E-1,0E0,1.8098156E-1,1.2707579E-1,2.9871017E-1,-4.0287822E-2,1.9306348E-1,6.9141574E-2,-1.3466333E-1,-8.1780896E-2,1.4532408E-1,-2.3433428E-1,-4.7646523E-2,-1.23308994E-1,3.0113334E-2,3.219555E-1,9.678324E-2,3.784242E-1,-2.3741404E-2,-1.03193775E-1,1.2708841E-1,-1.2183111E-2,2.0077945E-1,-2.808154E-4,-1.7801043E-1],"split_indices":[0,4,5,5,5,2,2,6,0,2,2,1,16,7,16,1,1,3,2,8,8,2,1,0,0,2,0,0,0,3,1,0,0,16,1,1,1,15,0,16,0,0,0,0,0,0,0,0,0,0,0,0,0,0,0,0,0,0,0,0,0,0,0],"split_type":[0,0,0,0,0,0,0,0,0,0,0,0,0,0,0,0,0,0,0,0,0,0,0,0,0,0,0,0,0,0,0,0,0,0,0,0,0,0,0,0,0,0,0,0,0,0,0,0,0,0,0,0,0,0,0,0,0,0,0,0,0,0,0],"sum_hessian":[2.1737653E2,1.9665782E2,2.0718716E1,3.6448357E1,1.6020946E2,1.4104726E1,6.6139903E0,3.535556E1,1.0927982E0,1.1968562E2,4.0523838E1,9.9394455E0,4.165281E0,3.5306656E0,3.0833244E0,3.30819E1,2.273659E0,8.630732E1,3.33783E1,7.9055624E0,3.2618275E1,6.6533217E0,3.2861235E0,2.4721847E0,1.6930962E0,2.5095541E0,1.0211117E0,1.1905209E0,1.8928037E0,2.1772585E1,1.1309316E1,1.2704283E0,1.0032308E0,7.970662E1,6.600704E0,7.165576E0,2.6212723E1,6.6615963E0,1.2439661E0,3.114874E1,1.4695327E0,3.429386E0,3.2239358E0,1.6566005E0,1.6295229E0,1.508883E0,1.000671E0,2.0188488E1,1.5840967E0,7.951315E0,3.358001E0,2.854383E1,5.116279E1,4.1151233E0,2.4855807E0,5.783668E0,1.3819077E0,8.688266E0,1.7524458E1,4.7683372E0,1.893259E0,9.097063E0,2.2051678E1],"tree_param":{"num_deleted":"0","num_feature":"18","num_nodes":"63","size_leaf_vector":"1"}},{"base_weights":[1.4995089E-2,1.2594656E-3,2.2425131E-1,5.1064447E-2,-1.9762273E-1,-1.0403677E-1,2.1123369E-1,3.9330292E-1,-5.6594044E-1,8.377644E-2,-4.5723304E-1,5.6340545E-1,1.1672756E-1,4.732677E-1,-1.2867549E-1,-6.772961E-1,3.4347242E-1,1.7872626E-1,-1.713354E-1,-5.785299E-1,2.2922654E-1,3.7215427E-1,4.7331116E-1,3.246489E-1,-8.159303E-2,3.1475708E-1,2.5714287E-1,-7.9195744E-1,-1.1725196E-1,-1.5370898E-2,1.7437407E-1,4.062815E-2,2.0628093E-1,2.836766E-1,-1.3111295E-1,-2.217601E-1,1.3404895E-2,1.729246E-1,-1.4276549E-1,1.740696E-1,-8.227595E-3,2.411101E-2,-2.0009275E-1,1.8407711E-1,-1.23509884E-1,-2.8920674E-1,-1.1388488E-1,1.519286E-1,-1.6078553E-1],"categories":[],"categories_nodes":[],"categories_segments":[],"categories_sizes":[],"default_left":[0,0,0,0,0,0,0,0,0,0,0,0,0,0,0,0,0,0,0,0,0,0,0,0,0,0,0,0,0,0,0,0,0,0,0,0,0,0,0,0,0,0,0,0,0,0,0,0,0],"id":20,"left_children":[1,3,-1,5,7,9,11,13,15,17,19,21,23,25,-1,27,29,31,33,35,-1,37,-1,39,41,43,-1,45,47,-1,-1,-1,-1,-1,-1,-1,-1,-1,-1,-1,-1,-1,-1,-1,-1,-1,-1,-1,-1],"loss_changes":[2.1286747E0,2.0779893E0,0E0,4.189321E0,9.367148E0,5.7360654E0,2.6919208E0,1.3024745E0,2.8952608E0,1.4094007E0,4.8823485E0,2.762836E0,2.7722487E0,6.864822E-1,0E0,1.4329653E0,3.6124656E-1,8.3166647E-1,5.1467004E0,2.820138E0,0E0,3.0178394E0,0E0,2.959115E0,3.3605878E0,3.010336E0,0E0,1.0210495E0,1.6324034E0,0E0,0E0,0E0,0E0,0E0,0E0,0E0,0E0,0E0,0E0,0E0,0E0,0E0,0E0,0E0,0E0,0E0,0E0,0E0,0E0],"parents":[2147483647,0,0,1,1,3,3,4,4,5,5,6,6,7,7,8,8,9,9,10,10,11,11,12,12,13,13,15,15,16,16,17,17,18,18,19,19,21,21,23,23,24,24,25,25,27,27,28,28],"right_children":[2,4,-1,6,8,10,12,14,16,18,20,22,24,26,-1,28,30,32,34,36,-1,38,-1,40,42,44,-1,46,48,-1,-1,-1,-1,-1,-1,-1,-1,-1,-1,-1,-1,-1,-1,-1,-1,-1,-1,-1,-1],"split_conditions":[9.33333E-1,1E0,2.2425131E-1,1.53846E-1,2.05128E-1,1.1236E-2,2.05128E-1,1E0,1E0,3.61E-3,1E0,1E0,0E0,3.15789E-1,-1.2867549E-1,1E0,1E0,1E0,1E0,2.58741E-1,2.2922654E-1,3.61E-3,4.7331116E-1,1E0,1E0,3.61E-3,2.5714287E-1,5E-1,1.94444E-1,-1.5370898E-2,1.7437407E-1,4.062815E-2,2.0628093E-1,2.836766E-1,-1.3111295E-1,-2.217601E-1,1.3404895E-2,1.729246E-1,-1.4276549E-1,1.740696E-1,-8.227595E-3,2.411101E-2,-2.0009275E-1,1.8407711E-1,-1.23509884E-1,-2.8920674E-1,-1.1388488E-1,1.519286E-1,-1.6078553E-1],"split_indices":[8,14,0,2,2,2,2,13,1,1,3,6,16,1,0,2,4,9,16,1,0,1,0,3,5,1,0,1,1,0,0,0,0,0,0,0,0,0,0,0,0,0,0,0,0,0,0,0,0],"split_type":[0,0,0,0,0,0,0,0,0,0,0,0,0,0,0,0,0,0,0,0,0,0,0,0,0,0,0,0,0,0,0,0,0,0,0,0,0,0,0,0,0,0,0,0,0,0,0,0,0],"sum_hessian":[2.106605E2,2.077663E2,2.8942037E0,1.66751E2,4.10153E1,8.489382E1,8.1857185E1,1.5722471E1,2.529283E1,5.5920647E1,2.8973173E1,1.626923E1,6.558795E1,1.4715705E1,1.0067662E0,2.2761028E1,2.531802E0,4.097108E1,1.4949565E1,2.6834394E1,2.1387792E0,1.4838301E1,1.4309304E0,3.1707985E1,3.3879967E1,1.1703156E1,3.0125482E0,1.854923E1,4.2117963E0,1.2467304E0,1.2850715E0,3.8925163E1,2.0459182E0,2.3812082E0,1.25683565E1,2.1186258E1,5.648136E0,1.2216175E1,2.622125E0,1.799601E1,1.3711976E1,2.721332E1,6.6666465E0,8.402211E0,3.3009453E0,1.2143831E1,6.4054003E0,1.6076177E0,2.6041787E0],"tree_param":{"num_deleted":"0","num_feature":"18","num_nodes":"49","size_leaf_vector":"1"}},{"base_weights":[1.5840773E-2,-1.3757433E-2,3.574539E-1,-2.3488459E-1,3.387684E-2,2.4958035E-1,2.1055798E-1,-2.915185E-1,2.2202863E-1,6.7977984E-3,7.211756E-1,5.5416083E-1,6.897948E-2,-1.1973447E-1,-5.225352E-1,6.60084E-2,-1.7563744E-1,2.4179306E-2,2.5558886E-1,5.5281937E-2,2.7881587E-1,2.856001E-1,-3.6131003E-1,-2.4955834E-1,7.609791E-2,-6.7450583E-1,-7.93012E-2,2.7965043E-2,4.323031E-1,8.0879614E-2,-6.471359E-1,-3.29098E-2,5.5981565E-2,-7.503007E-2,1.6340816E-1,-2.2568496E-1,3.641146E-2,-9.34081E-2,3.266318E-2,-2.61258E-1,-1.624611E-2,1.1012841E-1,-1.6543624E-1,2.3355039E-2,-8.294677E-2,1.9062062E-1,3.9458722E-2,8.282271E-2,-7.42291E-2,-3.421964E-1,-5.559843E-2,7.252592E-2,-8.490852E-2],"categories":[],"categories_nodes":[],"categories_segments":[],"categories_sizes":[],"default_left":[0,0,0,0,0,0,0,0,0,0,0,0,0,0,0,0,0,0,0,0,0,0,0,0,0,0,0,0,0,0,0,0,0,0,0,0,0,0,0,0,0,0,0,0,0,0,0,0,0,0,0,0,0],"id":21,"left_children":[1,3,5,7,9,11,-1,13,-1,15,17,19,21,23,25,27,29,-1,-1,31,-1,33,35,37,-1,39,41,43,45,47,49,-1,-1,51,-1,-1,-1,-1,-1,-1,-1,-1,-1,-1,-1,-1,-1,-1,-1,-1,-1,-1,-1],"loss_changes":[2.0577729E0,1.9861373E0,4.2764115E-1,2.0606422E0,2.8871603E0,7.2678006E-1,0E0,1.2190552E0,0E0,1.6374319E0,4.2401838E-1,8.910574E-1,1.023421E0,1.0240477E0,8.542118E-1,1.5815027E0,4.5459023E0,0E0,0E0,9.033072E-2,0E0,7.066357E-1,7.984985E-1,3.7083596E-1,0E0,1.1589589E0,1.1664648E0,1.6111895E0,5.6948066E-1,1.6672908E0,2.7974844E0,0E0,0E0,3.226196E-1,0E0,0E0,0E0,0E0,0E0,0E0,0E0,0E0,0E0,0E0,0E0,0E0,0E0,0E0,0E0,0E0,0E0,0E0,0E0],"parents":[2147483647,0,0,1,1,2,2,3,3,4,4,5,5,7,7,9,9,10,10,11,11,12,12,13,13,14,14,15,15,16,16,19,19,21,21,22,22,23,23,25,25,26,26,27,27,28,28,29,29,30,30,33,33],"right_children":[2,4,6,8,10,12,-1,14,-1,16,18,20,22,24,26,28,30,-1,-1,32,-1,34,36,38,-1,40,42,44,46,48,50,-1,-1,52,-1,-1,-1,-1,-1,-1,-1,-1,-1,-1,-1,-1,-1,-1,-1,-1,-1,-1,-1],"split_conditions":[1.42857E-1,1E0,9.33333E-1,1E0,1E0,1.90476E-1,2.1055798E-1,6.4516E-2,2.2202863E-1,1E0,7.9365E-2,6.95652E-1,6.72414E-1,1E0,1E0,1E0,4.0625E-1,2.4179306E-2,2.5558886E-1,8.9744E-2,2.7881587E-1,5E-1,0E0,1E0,7.609791E-2,9.11111E-1,4.5455E-2,1.802E-3,9.1803E-2,3.61E-3,9E-1,-3.29098E-2,5.5981565E-2,1.1236E-2,1.6340816E-1,-2.2568496E-1,3.641146E-2,-9.34081E-2,3.266318E-2,-2.61258E-1,-1.624611E-2,1.1012841E-1,-1.6543624E-1,2.3355039E-2,-8.294677E-2,1.9062062E-1,3.9458722E-2,8.282271E-2,-7.42291E-2,-3.421964E-1,-5.559843E-2,7.252592E-2,-8.490852E-2],"split_indices":[8,4,8,5,1,8,0,2,0,5,2,2,2,14,3,0,2,0,0,1,0,8,17,9,0,1,1,8,1,1,2,0,0,2,0,0,0,0,0,0,0,0,0,0,0,0,0,0,0,0,0,0,0],"split_type":[0,0,0,0,0,0,0,0,0,0,0,0,0,0,0,0,0,0,0,0,0,0,0,0,0,0,0,0,0,0,0,0,0,0,0,0,0,0,0,0,0,0,0,0,0,0,0,0,0,0,0,0,0],"sum_hessian":[2.0202914E2,1.8680374E2,1.5225408E1,3.2411682E1,1.5439206E2,1.29073E1,2.3181076E0,3.129485E1,1.1168313E0,1.4951132E2,4.88074E0,4.0345945E0,8.872706E0,1.8819193E1,1.2475657E1,1.1335829E2,3.6153023E1,1.1015842E0,3.7791562E0,2.2244365E0,1.8101579E0,6.1253047E0,2.7474012E0,1.4210168E1,4.6090255E0,8.9017515E0,3.5739052E0,1.0366771E2,9.69058E0,2.395102E1,1.2202004E1,1.0588573E0,1.1655791E0,2.8578725E0,3.2674325E0,1.2093089E0,1.5380924E0,1.2232379E1,1.9777883E0,6.454846E0,2.4469059E0,1.9514346E0,1.6224706E0,8.971253E1,1.3955177E1,5.120431E0,4.570149E0,1.5120345E1,8.830674E0,5.187895E0,7.0141096E0,1.0684028E0,1.7894697E0],"tree_param":{"num_deleted":"0","num_feature":"18","num_nodes":"53","size_leaf_vector":"1"}},{"base_weights":[1.3232676E-2,-2.7732868E-4,2.015331E-1,-3.986274E-2,2.0628701E-1,-5.409699E-2,5.670225E-1,6.148257E-1,1.0688437E-1,-2.5491945E-2,-6.676568E-1,2.6030633E-1,-3.522226E-2,2.6035896E-1,-5.3078957E-2,-1.8885563E-1,2.9832017E-1,-5.2056E-2,7.614683E-1,-2.523893E-1,5.4980762E-2,-4.1911042E-1,4.825341E-1,-1.3745874E-1,4.5379472E-1,-8.057347E-3,-1.3107902E-1,3.1459215E-1,-5.141487E-2,-1.3996017E-2,-2.9550245E-1,1.8461967E-1,3.0495377E-2,-1.395826E-1,1.703089E-1,1.8157066E-1,1.2705343E-2],"categories":[],"categories_nodes":[],"categories_segments":[],"categories_sizes":[],"default_left":[0,0,0,0,0,0,0,0,0,0,0,0,0,0,0,0,0,0,0,0,0,0,0,0,0,0,0,0,0,0,0,0,0,0,0,0,0],"id":22,"left_children":[1,3,-1,5,7,9,11,13,15,17,19,-1,-1,-1,-1,21,23,25,27,-1,-1,29,31,33,35,-1,-1,-1,-1,-1,-1,-1,-1,-1,-1,-1,-1],"loss_changes":[1.7461233E0,1.5887829E0,0E0,1.4391699E0,1.2032331E0,2.7950547E0,8.887247E-1,1.3364975E0,1.5477395E0,3.2616303E0,1.2028687E0,0E0,0E0,0E0,0E0,1.8971257E0,1.1720976E0,1.4432727E0,1.5450654E0,0E0,0E0,1.7875715E0,1.0265499E-1,1.4371638E0,7.410538E-1,0E0,0E0,0E0,0E0,0E0,0E0,0E0,0E0,0E0,0E0,0E0,0E0],"parents":[2147483647,0,0,1,1,3,3,4,4,5,5,6,6,7,7,8,8,9,9,10,10,15,15,16,16,17,17,18,18,21,21,22,22,23,23,24,24],"right_children":[2,4,-1,6,8,10,12,14,16,18,20,-1,-1,-1,-1,22,24,26,28,-1,-1,30,32,34,36,-1,-1,-1,-1,-1,-1,-1,-1,-1,-1,-1,-1],"split_conditions":[2E0,1E0,2.015331E-1,8.88889E-1,1.14286E-1,5.18987E-1,1E0,1E0,9.18919E-1,4.4186E-1,7.9137E-2,2.6030633E-1,-3.522226E-2,2.6035896E-1,-5.3078957E-2,7.4074E-2,1E0,1E0,6.84211E-1,-2.523893E-1,5.4980762E-2,7.63636E-1,1E0,1E0,1E0,-8.057347E-3,-1.3107902E-1,3.1459215E-1,-5.141487E-2,-1.3996017E-2,-2.9550245E-1,1.8461967E-1,3.0495377E-2,-1.395826E-1,1.703089E-1,1.8157066E-1,1.2705343E-2],"split_indices":[0,9,0,1,2,1,5,1,2,1,8,0,0,0,0,8,4,13,2,0,0,2,3,6,14,0,0,0,0,0,0,0,0,0,0,0,0],"split_type":[0,0,0,0,0,0,0,0,0,0,0,0,0,0,0,0,0,0,0,0,0,0,0,0,0,0,0,0,0,0,0,0,0,0,0,0,0],"sum_hessian":[1.9524025E2,1.922949E2,2.9453423E0,1.6204758E2,3.0247324E1,1.592239E2,2.8236716E0,4.904584E0,2.534274E1,1.5312648E2,6.09743E0,1.775816E0,1.0478556E0,3.6439025E0,1.2606812E0,9.963729E0,1.537901E1,1.4902979E2,4.096689E0,5.0734515E0,1.0239787E0,7.6990705E0,2.2646587E0,4.0744977E0,1.1304513E1,1.4087624E2,8.153558E0,3.0374925E0,1.0591965E0,5.2959046E0,2.4031656E0,1.2224945E0,1.0421642E0,3.0136666E0,1.060831E0,7.918815E0,3.3856978E0],"tree_param":{"num_deleted":"0","num_feature":"18","num_nodes":"37","size_leaf_vector":"1"}},{"base_weights":[1.3912154E-2,-1.4797162E-2,2.3813942E-1,2.1812668E-2,-3.215784E-1,3.6773357E-1,-3.120822E-1,2.4007198E-3,3.7408948E-1,-5.4347926E-1,-7.0474425E-4,3.4905478E-1,2.4967417E-1,-1.8183815E-1,8.053948E-2,1.6277995E-2,-2.8950405E-1,-3.8492776E-2,6.431564E-1,-3.7915863E-2,-2.6124537E-1,3.748206E-1,-4.37071E-1,9.901191E-2,5.66223E-1,-1.0265171E-2,2.361261E-1,6.1225213E-2,-9.653781E-2,1.667992E-2,2.3609647E-1,-1.8992637E-1,2.6894626E-1,7.379816E-2,-6.143604E-1,-1.538161E-1,2.4577473E-1,2.0608376E-1,3.1308655E-2,-2.3056988E-2,2.3348413E-2,2.3064885E-1,2.4564354E-2,1.9608617E-1,-8.473735E-2,2.4242505E-2,-2.3284452E-1,9.609169E-2,-6.54395E-2],"categories":[],"categories_nodes":[],"categories_segments":[],"categories_sizes":[],"default_left":[0,0,0,0,0,0,0,0,0,0,0,0,0,0,0,0,0,0,0,0,0,0,0,0,0,0,0,0,0,0,0,0,0,0,0,0,0,0,0,0,0,0,0,0,0,0,0,0,0],"id":23,"left_children":[1,3,5,7,9,11,13,15,17,19,21,-1,23,-1,-1,25,-1,27,29,31,-1,-1,33,35,37,39,41,-1,-1,-1,-1,-1,43,-1,45,-1,47,-1,-1,-1,-1,-1,-1,-1,-1,-1,-1,-1,-1],"loss_changes":[1.2447106E0,1.9372699E0,1.6794213E0,1.0554866E0,1.3087783E0,1.4211736E0,9.691361E-1,1.9947977E0,9.196714E-1,1.7655859E0,5.1927986E0,0E0,7.6130855E-1,0E0,0E0,8.56246E-1,0E0,3.491924E-1,3.7336493E-1,1.1413192E0,0E0,0E0,1.0054909E0,1.2773272E0,2.2464538E-1,7.7746505E-1,1.2356074E0,0E0,0E0,0E0,0E0,0E0,1.0776036E0,0E0,7.248447E-1,0E0,4.5083565E-1,0E0,0E0,0E0,0E0,0E0,0E0,0E0,0E0,0E0,0E0,0E0,0E0],"parents":[2147483647,0,0,1,1,2,2,3,3,4,4,5,5,6,6,7,7,8,8,9,9,10,10,12,12,15,15,17,17,18,18,19,19,22,22,23,23,24,24,25,25,26,26,32,32,34,34,36,36],"right_children":[2,4,6,8,10,12,14,16,18,20,22,-1,24,-1,-1,26,-1,28,30,32,-1,-1,34,36,38,40,42,-1,-1,-1,-1,-1,44,-1,46,-1,48,-1,-1,-1,-1,-1,-1,-1,-1,-1,-1,-1,-1],"split_conditions":[7.6923E-2,1.802E-3,9.69231E-1,1E0,1.73913E-1,8.1633E-2,4E-1,9.75E-1,1E0,3.61E-3,2.05882E-1,3.4905478E-1,3.31361E-1,-1.8183815E-1,8.053948E-2,1E0,-2.8950405E-1,1E0,7.9365E-2,1.7751E-2,-2.6124537E-1,3.748206E-1,1.45833E-1,1.44172E-1,1E0,1.5E-1,1.03448E-1,6.1225213E-2,-9.653781E-2,1.667992E-2,2.3609647E-1,-1.8992637E-1,3.6585E-2,7.379816E-2,9.434E-3,-1.538161E-1,1.5E-1,2.0608376E-1,3.1308655E-2,-2.3056988E-2,2.3348413E-2,2.3064885E-1,2.4564354E-2,1.9608617E-1,-8.473735E-2,2.4242505E-2,-2.3284452E-1,9.609169E-2,-6.54395E-2],"split_indices":[8,8,2,1,1,8,8,1,4,1,1,0,1,0,0,9,0,16,2,8,0,0,2,8,14,2,2,0,0,0,0,0,8,0,8,0,1,0,0,